{"layers":[{"out_depth":3,"out_sx":32,"out_sy":32,"layer_type":"input"},{"sx":3,"sy":3,"stride":1,"in_depth":3,"out_depth":10,"out_sx":32,"out_sy":32,"layer_type":"conv","l1_decay_mul":0,"l2_decay_mul":1,"pad":1,"filters":[{"sx":3,"sy":3,"depth":3,"w":{"0":0.13045769507704982,"1":-0.6101033220030083,"2":-0.6659853949350125,"3":0.2890241719695976,"4":-0.08131416397325074,"5":-0.47113690501372074,"6":0.01622760730412245,"7":-0.4073923686568976,"8":-0.39695262639573337,"9":-0.3384477721517789,"10":-0.47958688786151704,"11":-0.35444576796891514,"12":0.01218762464616153,"13":0.12827321889798,"14":-0.10248284301383587,"15":0.18997705298378334,"16":-0.0007336195324508826,"17":0.15914183511409025,"18":-0.20795221700058808,"19":-0.9395653262660895,"20":-0.7058930258301843,"21":0.5124181606603487,"22":0.2237823839978877,"23":-0.0967944013878613,"24":0.6333704850676076,"25":0.6149284740104588,"26":0.48266746031080404}},{"sx":3,"sy":3,"depth":3,"w":{"0":-0.49222876792177567,"1":-0.3984786276528042,"2":0.30328781660485266,"3":0.12317380950852301,"4":-0.23856484281488452,"5":-0.13954966337468624,"6":-0.26221316860689636,"7":-0.16466452547063534,"8":0.18246891011775523,"9":0.01588733712700035,"10":0.423984699822199,"11":0.051332935261625884,"12":-0.1432210603035806,"13":-0.12511552570841747,"14":0.7536708470096414,"15":0.4267329361419701,"16":-0.02813456064333962,"17":0.8999983190327338,"18":0.09097120377344058,"19":-0.2663423742306227,"20":0.4574096157056588,"21":-0.12444745540590513,"22":-0.04626869599890491,"23":0.8652104394613723,"24":0.3189175545300703,"25":0.3890924841100583,"26":0.7628573936522266}},{"sx":3,"sy":3,"depth":3,"w":{"0":-0.10512321240000408,"1":0.645319975902391,"2":-0.5195417082472847,"3":0.09813350940871196,"4":0.6214429802693878,"5":-0.33193095337906886,"6":-0.020270745335683276,"7":0.39019759697666084,"8":-0.5869060089656726,"9":-0.1515782205909805,"10":0.6927275732141095,"11":-0.2825711871230919,"12":-0.039260774951273135,"13":0.9457690677205822,"14":-0.266707085238114,"15":-0.34738557207832826,"16":0.3707411650406585,"17":-0.4030007951795717,"18":0.08549685532268234,"19":0.7184434398528463,"20":-0.24559656625290888,"21":0.03313080933996033,"22":0.713951323605292,"23":-0.4862841919852224,"24":-0.25930513911993225,"25":0.4750278700647217,"26":-0.48001466762546247}},{"sx":3,"sy":3,"depth":3,"w":{"0":0.4847842980532129,"1":-0.8137655417960693,"2":-0.09473982975616568,"3":0.502272087872996,"4":-0.8208582748446214,"5":-0.025319069495079626,"6":0.40788274069191915,"7":-0.16251384897763912,"8":-0.008533077727290542,"9":0.6810893267297076,"10":-1.0712252633446713,"11":-0.2290962522214994,"12":0.7995409894471566,"13":-0.2577548957436272,"14":-0.18602857550705137,"15":0.7439210814751037,"16":-0.5826330846059823,"17":-0.3785563314246343,"18":-0.11056077177700865,"19":-0.6465668601379619,"20":0.2070185657651473,"21":0.44648816026900995,"22":-0.29207362690093247,"23":-0.3991203327974477,"24":0.34870420918987455,"25":-0.3715251604467733,"26":-0.07510535022564484}},{"sx":3,"sy":3,"depth":3,"w":{"0":0.4006844170720394,"1":0.49980290271811584,"2":0.03254808417752148,"3":-0.12345526375705976,"4":0.2112553271917264,"5":-0.5397427823568739,"6":0.04253388406001262,"7":0.14015039257673356,"8":-0.44174196908025526,"9":0.6086160215686834,"10":0.5328426001632244,"11":0.24833470477801686,"12":0.38350169618063895,"13":-0.04979115215875503,"14":-0.2567812157108054,"15":0.26827945231073747,"16":-0.4738386663600204,"17":-0.22748987905661758,"18":0.9170863892171585,"19":0.5863666442780736,"20":-0.007072273784260163,"21":0.26607413111564315,"22":0.07565028241639328,"23":-0.26696696961178357,"24":-0.273673531589622,"25":-0.2732146547581197,"26":-0.4140591409692221}},{"sx":3,"sy":3,"depth":3,"w":{"0":0.21961688355974282,"1":-0.14934627917103116,"2":0.24596591548333716,"3":0.2479082146500334,"4":-0.02871416721397839,"5":-0.03478731320832209,"6":-0.1691065677045963,"7":-0.7898926544772966,"8":-0.32922920651056686,"9":0.6410705610331154,"10":0.20475396840194637,"11":0.0665154687711853,"12":0.2175251871796115,"13":-0.14497008152591248,"14":0.14371530423692047,"15":0.4886481386512442,"16":-0.44462514235835976,"17":-0.5644079249220103,"18":0.4537544268392225,"19":0.031009659463739323,"20":0.44116128417622175,"21":0.3766260711174876,"22":0.45631433292913076,"23":0.054028007513862324,"24":0.3987923911777199,"25":-0.2806488894609207,"26":0.017449546672310367}},{"sx":3,"sy":3,"depth":3,"w":{"0":0.14431610383074608,"1":-0.5875130667873176,"2":0.15607367963206897,"3":0.38076010460176163,"4":0.2887348559402857,"5":0.7505699822468108,"6":0.5083388864090462,"7":-0.4723777582467399,"8":0.561334366388428,"9":-0.3664355034344257,"10":-0.37510106109005203,"11":0.16357749553853818,"12":0.06501811904093328,"13":-0.8341406056764245,"14":-0.2673471154223999,"15":-0.3176738469335575,"16":-0.720717564126739,"17":-0.33717485936545877,"18":-0.39759780298501035,"19":-0.31141511787002174,"20":-0.00885194299745412,"21":-0.6080386585965831,"22":-0.5693784336579937,"23":-0.014215494493825141,"24":-0.6284611427580185,"25":-0.475033363079427,"26":-0.47412010201126}},{"sx":3,"sy":3,"depth":3,"w":{"0":0.29809822030078215,"1":-0.26828100495989976,"2":0.06622312395366467,"3":0.032825193788553975,"4":-0.3925594561849495,"5":0.41359630990800955,"6":0.22718069360811738,"7":-0.77003946852196,"8":-0.014879400942579194,"9":0.6189758004257461,"10":0.2621417270835439,"11":0.5977846732761865,"12":0.4622459246322201,"13":0.054645654987484346,"14":0.5703128151307797,"15":-0.1620556173943572,"16":-0.42414183986859505,"17":0.12233199987623672,"18":-0.3091779250280117,"19":-0.22826113417740612,"20":0.06034135942398926,"21":-0.19247388171925406,"22":-0.7632154234180761,"23":0.07519142089980306,"24":-0.8542453155351326,"25":-0.6348056819068779,"26":-0.7060474616694733}},{"sx":3,"sy":3,"depth":3,"w":{"0":-0.2758859169722995,"1":-0.5515563286905896,"2":0.37691675732691143,"3":-0.9754927983085399,"4":-0.16063466434140453,"5":0.7914271426010404,"6":-0.8338924627446388,"7":-0.413095761383517,"8":0.261735581735813,"9":-0.3187527128046786,"10":-0.05705878729065525,"11":0.7139636842934138,"12":-0.18928136717968896,"13":-0.16417467825188703,"14":0.8429131301338134,"15":-0.8187323516431639,"16":-0.09240284738906906,"17":0.9375770934558665,"18":0.09253859703069824,"19":-0.23120205610896957,"20":1.0964977380970669,"21":-0.04841365598654963,"22":0.3440524520016089,"23":1.1862702537457404,"24":-0.32956156449376833,"25":-0.10861447285923237,"26":0.9842095271698645}},{"sx":3,"sy":3,"depth":3,"w":{"0":-0.2854294026544494,"1":0.183347124846992,"2":0.2827417730552007,"3":0.08364704877142905,"4":-0.2993112650177269,"5":0.35724649581093926,"6":0.018380533286041514,"7":-0.23115817176624112,"8":0.12985501634184096,"9":-0.12612025779473351,"10":0.167874943128421,"11":0.4538802250651448,"12":-0.14362290215129941,"13":-0.17708767968555744,"14":0.7404283517869052,"15":-0.3762624673239773,"16":-0.01767452000073356,"17":0.6077324266722557,"18":-0.23964844660081144,"19":-0.30673612831517166,"20":0.3672311083066444,"21":-0.24182379911873683,"22":-0.4015390933236998,"23":0.29509184931323795,"24":-0.27600489764408626,"25":-0.20813364617236657,"26":0.21068255282288964}}],"biases":{"sx":1,"sy":1,"depth":10,"w":{"0":-0.34376806337948124,"1":-0.30699501078964114,"2":-0.012355662448308147,"3":-1.0112067257102737,"4":-0.4361363099546722,"5":-0.4282944144796518,"6":-0.7197940878381068,"7":-0.632134869818302,"8":0.07065566050834274,"9":0.10655122003167616}}},{"out_depth":10,"out_sx":32,"out_sy":32,"layer_type":"relu"},{"sx":3,"sy":3,"stride":1,"in_depth":10,"out_depth":10,"out_sx":32,"out_sy":32,"layer_type":"conv","l1_decay_mul":0,"l2_decay_mul":1,"pad":1,"filters":[{"sx":3,"sy":3,"depth":10,"w":{"0":0.10269669966289535,"1":-0.32567589715657647,"2":-0.17683042106094402,"3":-0.028839359333911945,"4":-0.2553825986007988,"5":-0.5095924696711149,"6":-0.2568021316400163,"7":-0.20407873471660726,"8":-0.2760025583258461,"9":-0.2224575056033349,"10":0.22633499661298495,"11":0.03394180639051046,"12":-0.17772179752082068,"13":-0.013965012506041596,"14":-0.2894411525684614,"15":0.042324366674294595,"16":-0.09086391349644281,"17":-0.012786737188437551,"18":-0.22075013237863286,"19":0.05695193930113367,"20":0.15892181755969023,"21":0.08683495621403123,"22":-0.06490430037289432,"23":-0.0047755717448518635,"24":0.03891054541328127,"25":-0.042289424446150824,"26":-0.24694389245726975,"27":0.049153253460335534,"28":0.16326477807392156,"29":0.04117599506675133,"30":0.24004457826023862,"31":-0.30249113995429705,"32":-0.17375034712351473,"33":0.07184167209742036,"34":-0.09463763431393493,"35":-0.13368214632306752,"36":-0.22497686101854195,"37":-0.1565117710927631,"38":-0.2099283758397847,"39":-0.2549100266943945,"40":0.016829008260069264,"41":0.3130777599021257,"42":0.038364787854439635,"43":0.01188120073761917,"44":-0.16159914300758688,"45":0.11780601381522277,"46":-0.14138722066771595,"47":-0.31590518204467144,"48":-0.06472644157470406,"49":-0.19622139465973518,"50":0.09330082753019982,"51":0.14203417761635295,"52":0.0468397575699879,"53":-0.1415320216731866,"54":-0.20138162751132874,"55":0.05036852248393901,"56":0.08092228355973619,"57":-0.21533583432368353,"58":0.05839146190082399,"59":-0.005136351046356094,"60":-0.049245348888049996,"61":0.06165522303311408,"62":-0.13141498110924976,"63":-0.06407424239745774,"64":-0.2552253433133268,"65":-0.0725151721782384,"66":-0.036681768078307884,"67":-0.061546574585169496,"68":0.12845754754825822,"69":-0.22834937358681215,"70":-0.03283264197378471,"71":0.317733070718156,"72":-0.07017745471914248,"73":-0.06090750591473826,"74":0.13713069719823945,"75":0.038142256926178744,"76":-0.13542562236831018,"77":0.02829013770820595,"78":-0.11376987710032156,"79":-0.14098574232402314,"80":-0.09779599924857828,"81":0.8515646948332044,"82":0.12113488083297977,"83":-0.032926007915539186,"84":-0.21029239717472803,"85":0.13742701753144917,"86":-0.16888892831813784,"87":-0.12970596658984032,"88":0.4304816974770562,"89":0.4244388847923394}},{"sx":3,"sy":3,"depth":10,"w":{"0":-0.4527310637987782,"1":-0.24978490078775273,"2":-0.17988800694171553,"3":-0.3154239427724791,"4":0.24295413176072678,"5":0.059475626126380764,"6":0.022553520727869997,"7":0.30520742284853314,"8":-0.1071838438218622,"9":0.010778153617780124,"10":-0.06345743282586734,"11":0.009280580775691893,"12":-0.06498171864056039,"13":-0.11961373839109592,"14":-0.5128557665713566,"15":-0.1604335904077181,"16":0.10892575664018016,"17":-0.1737396296612281,"18":-0.3065941913648957,"19":-0.3162317931679975,"20":0.5979360219545227,"21":-0.012754687749376522,"22":-0.1741325245718392,"23":0.10418962514699834,"24":-0.17887910981235147,"25":-0.035340700294534816,"26":0.05519474679644645,"27":0.07508788557179161,"28":-0.31294539108737585,"29":-0.28320853175483596,"30":-0.3447566956034346,"31":-0.20154026325562,"32":0.007172817801303481,"33":-0.17089787858705952,"34":0.38337974456569535,"35":0.20960279820176672,"36":-0.15588706427921192,"37":0.28243741671855377,"38":-0.03083142508754713,"39":0.08422077183763263,"40":-0.1385694122302427,"41":0.005969772266666004,"42":-0.15783140913014543,"43":-0.2984576612281309,"44":0.00176679742297022,"45":-0.06647069034529901,"46":0.12395310638854012,"47":0.01447533583059132,"48":-0.3057740160509751,"49":-0.06547709159752743,"50":0.3039471603717756,"51":0.01843127546179588,"52":0.0037780105686567827,"53":-0.030098603095541507,"54":-0.15465547475808913,"55":-0.10311265360157684,"56":0.46355982276660734,"57":0.09171349857614601,"58":-0.006193105756412775,"59":-0.04847484819760119,"60":-0.20993468793148307,"61":-0.3796697938514342,"62":0.11766331532858816,"63":-0.33996972486422666,"64":0.08649880008152791,"65":0.19960128498002316,"66":-0.4489740934206538,"67":-0.11246512533130884,"68":0.10488896809664261,"69":0.003799897846537148,"70":0.11853824550146158,"71":-0.15128590230446282,"72":0.003747079524944267,"73":-0.4374661413842834,"74":0.18216741357183516,"75":0.011596710425907911,"76":-0.323845849589803,"77":-0.15331429528633606,"78":-0.21667129029924065,"79":0.09397296027334813,"80":0.21508947107402243,"81":0.11601832141037109,"82":0.09783295877245364,"83":0.0026898202774443916,"84":0.046274539946143674,"85":0.06433508693853594,"86":0.11273644489702754,"87":-0.3263951109865412,"88":-0.37933382619327227,"89":0.023057910310106764}},{"sx":3,"sy":3,"depth":10,"w":{"0":-0.35006599440531755,"1":-0.1977991190982552,"2":-0.07363517340769075,"3":-0.07352606046047411,"4":-0.031996419340090426,"5":0.04602010896501405,"6":-0.28873053811649013,"7":-0.3197817378302988,"8":-0.09639048818265208,"9":-0.049115179032029506,"10":-0.19261085756275975,"11":-0.0902152422096708,"12":-0.03556896287244603,"13":-0.15855260082938083,"14":0.0068817800011557115,"15":-0.14332127505793543,"16":-0.20745454441483596,"17":-0.22568118406534218,"18":-0.01491658019600981,"19":-0.1345676745355162,"20":-0.13491329500840316,"21":-0.1570055439676386,"22":-0.21096985641845722,"23":-0.21490730597754684,"24":-0.3100352673230241,"25":-0.07997458469668187,"26":0.10603633030646066,"27":0.010972505748548756,"28":0.09417105653618563,"29":-0.05356255070104103,"30":0.06227356599834443,"31":-0.32176078144111037,"32":0.1495315848897476,"33":0.3929973225356016,"34":0.3184927343632673,"35":0.24070080294071447,"36":-0.1503126636211559,"37":-0.19099755800521973,"38":-0.3448856155833032,"39":-0.14646840305970193,"40":-0.0958040909175127,"41":-0.03478551752955911,"42":-0.03396964042943352,"43":0.24393966326820055,"44":0.3183409695586459,"45":0.0649685473135543,"46":-0.21271245466723898,"47":-0.06968539719451237,"48":0.02443834573521635,"49":-0.05539260971000818,"50":-0.08842830990624624,"51":-0.05905266369472747,"52":0.0896757976084658,"53":-0.03451498525067988,"54":-0.16735604832762296,"55":-0.08021110929930861,"56":-0.1360007999533322,"57":0.05813418375714918,"58":-0.15972400775975829,"59":-0.11437410984183592,"60":0.23452222007569143,"61":0.0714321555486366,"62":0.34129505031684837,"63":0.3264281180300544,"64":0.27478699125812556,"65":0.3892991286440171,"66":-0.012049084421333404,"67":-0.06976818146486133,"68":-0.07570741375340866,"69":-0.13747238748153226,"70":0.015102484173314655,"71":-0.039922404623667924,"72":0.058999972896385276,"73":0.19349466979946262,"74":0.3705511162010888,"75":0.2253933857953185,"76":-0.0334932009016697,"77":-0.16376475504950763,"78":0.0269526560870029,"79":-0.06541023692180742,"80":-0.023763621824096803,"81":-0.08619883734504429,"82":0.24630016664244558,"83":0.2812503533740355,"84":0.1705171803345383,"85":-0.11452728489547787,"86":0.2832046996760202,"87":0.051091666520151256,"88":-0.09834528735719605,"89":0.024068139917476843}},{"sx":3,"sy":3,"depth":10,"w":{"0":0.036157001066539254,"1":0.0866916977881669,"2":-0.1492483106951812,"3":-0.02288192890298535,"4":-0.18966328355088113,"5":-0.251395581721147,"6":-0.38860703841894456,"7":-0.22168907656800851,"8":-0.03542958870735495,"9":-0.038380922228650506,"10":0.14597181823146776,"11":0.1404459450901597,"12":0.006295201620491148,"13":0.09730567468801753,"14":-0.13294365791531187,"15":-0.2761067633090048,"16":0.032454507035730384,"17":-0.12073668418667123,"18":0.17597951599543807,"19":0.011819994676305718,"20":0.25942401917375774,"21":0.03875376967061661,"22":-0.21172174233026278,"23":0.05933506729998914,"24":-0.04700233198536694,"25":-0.159096386850923,"26":-0.014328656312722532,"27":-0.1699373247287362,"28":-0.05984505404261828,"29":-0.14429385557514607,"30":-0.11182916234633182,"31":0.03213319924028864,"32":-0.07236950591766984,"33":-0.01984579191206321,"34":-0.21440022905219083,"35":-0.13882578596439413,"36":-0.27244358806144203,"37":0.4582091857400175,"38":-0.02675443451083975,"39":-0.12017092693520087,"40":0.11971764665870617,"41":-0.24266907713104577,"42":-0.046260976167803766,"43":0.10888308561684788,"44":0.25808899809831914,"45":-0.059539570150171424,"46":-0.10439241931885794,"47":0.5288834987194624,"48":-0.22319596184569526,"49":-0.03680099428304286,"50":-0.06931812007540802,"51":-0.1961819873378537,"52":-0.17939352379891205,"53":-0.0315776441503216,"54":-0.22643215515108886,"55":-0.007379185196904967,"56":-0.0004254231198548374,"57":0.006403324058154641,"58":-0.12207182839558733,"59":-0.07081768790636075,"60":-0.21748214078487915,"61":-0.045805938957957815,"62":0.010001859641433174,"63":-0.08935541273420401,"64":-0.257156934230996,"65":-0.22335738069914604,"66":0.08672876880939451,"67":-0.03219081566612767,"68":-0.03435713739512888,"69":-0.1157333411042315,"70":0.005289914167081263,"71":-0.05571437327146586,"72":-0.0725617212437551,"73":-0.05268128113604053,"74":-0.2992953288291833,"75":-0.0874743265768991,"76":-0.078599899192402,"77":-0.28633703911174224,"78":-0.22043491484784164,"79":-0.07041106433880134,"80":0.24794774813233694,"81":-0.06118930553353713,"82":-0.1170675258486682,"83":-0.09600241615125027,"84":-0.3525633517345562,"85":-0.02147297562504479,"86":-0.2141761944126363,"87":-0.44968283927941555,"88":-0.07647009448112942,"89":-0.12341345078282445}},{"sx":3,"sy":3,"depth":10,"w":{"0":-0.006169033384637954,"1":-0.37697121112592635,"2":-0.1239486948745179,"3":0.5635301965916762,"4":-0.14083894180782075,"5":-0.05193516008235683,"6":0.539654313622251,"7":0.18931056737703936,"8":-0.45544570972850756,"9":0.1859062103329814,"10":-0.03961951456399614,"11":-0.2573043544486447,"12":-0.18997307680909178,"13":0.3230264517372531,"14":0.019046570757562022,"15":0.030782763804083447,"16":-0.07219920968374259,"17":0.5359284648707512,"18":-0.33789031369720673,"19":0.1330818248681511,"20":-0.03023179743897579,"21":-0.20042991676769728,"22":-0.05403662421335432,"23":0.3445730360028868,"24":-0.08028948296902409,"25":-0.07043930801244923,"26":-0.392198121688126,"27":0.4950235929897416,"28":-0.1505241205780346,"29":0.3215880765801284,"30":-0.04965065669220852,"31":-0.33912893688755696,"32":-0.08099324331175013,"33":-0.008438651724608079,"34":-0.4011889185968744,"35":-0.18433536539726517,"36":0.2590725279938593,"37":0.04962989107379724,"38":0.050283832521948325,"39":-0.10028805238923773,"40":-0.10873705129147809,"41":-0.16540593204116022,"42":-0.14977712523161638,"43":-0.12321046163430958,"44":-0.1587452501374786,"45":-0.20611431868566776,"46":0.4998212570017677,"47":-0.06357331882518112,"48":-0.26506713462406417,"49":-0.2109861888703842,"50":-0.10573264390448876,"51":-0.2128793615795238,"52":-0.10376211364888062,"53":-0.13100204512255104,"54":-0.16469220234171428,"55":-0.2323612496311146,"56":0.5625354365602507,"57":-0.11801515752615419,"58":-0.2760078760451487,"59":-0.09833030844842672,"60":0.2811001751116431,"61":-0.27905783255621663,"62":-0.12701696731907253,"63":-0.04379058963761357,"64":-0.267298183392561,"65":-0.3036041842659298,"66":-0.3275303071145695,"67":-0.21744620598308478,"68":0.9111282363615735,"69":-0.2041013445341688,"70":0.16238614761929143,"71":-0.25791347120070157,"72":0.04516845337181795,"73":-0.03661439877634973,"74":-0.16878702444942495,"75":-0.37852116153644366,"76":-0.5335712716918666,"77":-0.46968155737990924,"78":0.5295913287444672,"79":-0.1258791610836569,"80":-0.07692935142704728,"81":-0.19762441884848322,"82":-0.023084626415429903,"83":-0.3859528533233903,"84":-0.37802173332483857,"85":-0.15562653355497952,"86":-0.28300733206007583,"87":-0.41448584456525345,"88":0.14752400658155154,"89":-0.21342544236319688}},{"sx":3,"sy":3,"depth":10,"w":{"0":-0.1162941027574418,"1":-0.2807744613499772,"2":-0.1978404458749324,"3":0.40162954947626156,"4":-0.3981905569318605,"5":0.025171946241682737,"6":-0.17437943850202195,"7":-0.20825516827980325,"8":-0.16267770461611536,"9":-0.18909515405733834,"10":-0.027222070630889796,"11":-0.028366195749411714,"12":-0.1927508257904833,"13":0.6870215599559987,"14":-0.14621560234261394,"15":-0.0552104032180939,"16":-0.11893163444830683,"17":-0.07202145538946209,"18":0.09799828114982155,"19":-0.055672842456881935,"20":0.04477274482093552,"21":-0.13707719018435172,"22":-0.27620142904965267,"23":0.40710830257320857,"24":-0.15117287318339911,"25":-0.20889993382100727,"26":-0.06291350377120326,"27":-0.08874242123050502,"28":0.5007040030342517,"29":0.12289649510508163,"30":0.08511320866943473,"31":-0.3238743301470488,"32":-0.19391238150293724,"33":0.21996602040906063,"34":-0.18620985736068174,"35":-0.1038747297650124,"36":-0.1576226969560815,"37":0.19611042337555923,"38":-0.5122051933023722,"39":-0.40099264295024095,"40":0.10272963587464014,"41":-0.0764665313819053,"42":-0.17152810858836126,"43":0.4943176348709107,"44":0.051643009663021884,"45":0.12784398552697113,"46":-0.25412926408586844,"47":0.09430189765121212,"48":-0.04429772746569607,"49":-0.04129294737187384,"50":-0.18680915927682304,"51":-0.08884113390218043,"52":-0.04340188827838047,"53":0.16296396668444568,"54":-0.014131575522875802,"55":-0.19835552631469744,"56":0.18976795861419793,"57":0.5483789182774008,"58":0.4383165772714037,"59":0.05283762131061397,"60":-0.22610759635380806,"61":-0.2919651009882622,"62":-0.07514500396929359,"63":-0.07182263864939163,"64":-0.1996580280325683,"65":-0.1257158427219295,"66":-0.04093051918017096,"67":0.08711417362294174,"68":-0.7388884837534532,"69":-0.29149732835722614,"70":-0.2835158347050969,"71":-0.2223122158386453,"72":-0.2810105753863768,"73":-0.2487348905512367,"74":-0.3561966873340454,"75":-0.2046993667248254,"76":0.20250462047693732,"77":-0.00393364199399077,"78":0.0870220232226782,"79":-0.2765798307932007,"80":-0.08713638379449996,"81":-0.10871717514606344,"82":0.004433255865399195,"83":0.01482965866445003,"84":-0.18840098538532224,"85":-0.14766887414054272,"86":0.5110308745832354,"87":0.21332920393914145,"88":0.16876879123929947,"89":-0.2980052686171275}},{"sx":3,"sy":3,"depth":10,"w":{"0":0.19520249254895566,"1":-0.08615838803839627,"2":-0.24442763621318028,"3":-0.1420671172241164,"4":-0.24940234815226175,"5":-0.3147849923424505,"6":-0.13797339973574468,"7":-0.08571832222650112,"8":-0.3186832240998927,"9":-0.3580720448255988,"10":-0.09380093185593562,"11":-0.37002186311279317,"12":-0.16738049177838007,"13":0.1568381680585458,"14":-0.20748571832103474,"15":-0.0011235041178004929,"16":-0.08357934079669105,"17":0.05116291608784302,"18":0.011085530106623062,"19":-0.23410573811347712,"20":-0.21988097677436677,"21":-0.1984147268864361,"22":-0.1259877518021775,"23":0.018134646158415323,"24":-0.4874296111384924,"25":-0.22218559151130035,"26":-0.18895207173362344,"27":0.08820124932656627,"28":-0.025115928486382284,"29":-0.027867291187545443,"30":-0.12333867833485579,"31":0.2417787502696707,"32":-0.10697695861719454,"33":-0.07647695449567167,"34":-0.10762366804972014,"35":0.037870177617091695,"36":-0.08059752373294908,"37":0.007302669769294516,"38":0.2051848659285664,"39":0.08295052150870039,"40":-0.2436282384245166,"41":0.23939777339388,"42":-0.1504878338102903,"43":0.00989103734476109,"44":-0.03787601023885081,"45":-0.13559875290586185,"46":-0.12003102578502807,"47":0.029241418801242022,"48":0.2639421791416299,"49":-0.13843874244194773,"50":-0.12202787180885917,"51":0.25570185643771265,"52":-0.019201976520917968,"53":0.10038874808298218,"54":0.10240743937567207,"55":0.1372092127012505,"56":-0.1473914726144792,"57":-0.1282884065442619,"58":0.33593273971337356,"59":0.027884661657198224,"60":-0.3861746271965464,"61":-0.17156318830101527,"62":-0.3028049336752133,"63":-0.09654049606224399,"64":-0.04459693654445384,"65":-0.15173962541359107,"66":-0.22974342569311834,"67":-0.01416301084679757,"68":-0.1246596031440639,"69":0.11442251892543877,"70":-0.22928370197406758,"71":0.16762470002488605,"72":0.0560590481184065,"73":-0.08630754501955185,"74":0.07567926010971279,"75":-0.005776849874453331,"76":-0.024679508112134416,"77":-0.11712960497819064,"78":-0.32403976200017254,"79":0.23044022548354795,"80":-0.17358107717533677,"81":0.08901851947339892,"82":0.16183237152418237,"83":-0.1028751340786833,"84":-0.05229740036237819,"85":-0.11034556671043892,"86":-0.03943404275015293,"87":-0.010491936836654005,"88":0.05852397936192304,"89":0.21729139098214154}},{"sx":3,"sy":3,"depth":10,"w":{"0":0.13814707388660719,"1":-0.3127492339984019,"2":-0.14387165467744728,"3":0.027413587844068752,"4":0.05222923837957275,"5":-0.14595812785623594,"6":-0.12489827308195253,"7":0.04945260156209813,"8":-0.14594456365968395,"9":-0.19014222625473073,"10":0.33427189963632076,"11":-0.2443282681200087,"12":-0.16142179077038046,"13":-0.08352134123239373,"14":-0.2754276257840893,"15":-0.10179133096229018,"16":-0.3133124851152758,"17":-0.16920684907786393,"18":-0.003128436321155022,"19":-0.09694354597564357,"20":-0.12816109566968695,"21":-0.03586094150917182,"22":-0.20307322418819643,"23":-0.060370734321047184,"24":-0.081318612923048,"25":-0.11630813848171768,"26":-0.12361150070279084,"27":-0.24023211464963945,"28":0.23535710902187731,"29":-0.17415601626041982,"30":0.15678728689772287,"31":-0.1583277534060495,"32":-0.16191060558448533,"33":0.302279865512793,"34":-0.015871380785474197,"35":0.07337391776613218,"36":-0.1280210004769202,"37":-0.10892446990522651,"38":-0.11455343051371156,"39":-0.24745176680774705,"40":0.13489178677550118,"41":-0.1727792354895705,"42":-0.3675693730066638,"43":0.3501074632699587,"44":-0.012767769005348904,"45":-0.30309586912252556,"46":-0.03216683632413289,"47":0.11393997093498856,"48":-0.3884294553956904,"49":-0.1819803416497365,"50":-0.18957231616164993,"51":0.0719866371798234,"52":-0.1669689207965922,"53":0.20205126062213358,"54":-0.1593415918794376,"55":0.020110591010906426,"56":-0.07097662602357677,"57":-0.04088325300340558,"58":0.09994708319340243,"59":-0.13386130788541467,"60":0.1671558917078466,"61":0.052849581308676515,"62":-0.0464129779968606,"63":0.04090245489847887,"64":-0.1458875954425887,"65":0.07324060042164528,"66":-0.025952078866891486,"67":0.06875259729065758,"68":-0.2434810728821595,"69":-0.2529297963600504,"70":0.38977554359371824,"71":-0.08958079394434913,"72":-0.1329492864489777,"73":-0.02878035839325173,"74":-0.2264292250070534,"75":-0.03169706245589508,"76":-0.042460279113936295,"77":-0.15065623524789218,"78":-0.3057226619860401,"79":-0.12228753852436758,"80":-0.5001923683894288,"81":0.3208071016733648,"82":-0.0361945181643296,"83":-0.21726211497095216,"84":-0.13916689544688723,"85":-0.052959182108134,"86":-0.006359638762028929,"87":0.1610160519442653,"88":0.23560893116370077,"89":0.05263283289602632}},{"sx":3,"sy":3,"depth":10,"w":{"0":-0.2332632138528509,"1":-0.21437306468287923,"2":-0.08570335305783622,"3":-0.018167311595486076,"4":0.1384520851685909,"5":-0.17902445358925143,"6":-0.1821560028636657,"7":0.0290604292813721,"8":-0.3903641597506967,"9":-0.23349596781067744,"10":0.06591017081201335,"11":-0.12205396617127225,"12":-0.24257623746519422,"13":0.24542401088596724,"14":-0.05250495606831447,"15":-0.06938004762014062,"16":0.04806424607696525,"17":-0.06111272259434903,"18":-0.4429211414656727,"19":-0.1960857620637204,"20":0.5272871889475876,"21":0.1639662167993223,"22":-0.08575458187483898,"23":0.34839243585203494,"24":-0.0067273044085279276,"25":0.20098103793931021,"26":-0.0850778831165669,"27":0.04145071328667718,"28":-0.12333271972031218,"29":-0.04643972038276201,"30":-0.5248979110334913,"31":-0.0709333377339967,"32":-0.21656552386344333,"33":-0.18759652131645238,"34":0.16258095503925152,"35":-0.015382267080588846,"36":0.32528723780234214,"37":0.26271244795506277,"38":-0.026451340599827053,"39":-0.1540838390163639,"40":-0.2501407959150463,"41":-0.08395729410594698,"42":-0.19727667024917195,"43":0.018336848629862727,"44":-0.12377467118909802,"45":-0.2871556936312553,"46":0.44340809278943005,"47":0.21604624218049748,"48":-0.1286158327971894,"49":-0.20328999420471597,"50":0.8810263692233851,"51":-0.22467244413767246,"52":-0.11203138201825387,"53":0.13074687557278544,"54":-0.1470724301281081,"55":-0.19796192384541966,"56":0.101872776282352,"57":-0.27979955891179753,"58":-0.16453879864739696,"59":-0.22859358709965286,"60":-0.3832011911128139,"61":-0.21710959606559457,"62":0.18055747107007014,"63":-0.4787536638473117,"64":0.05229898243332986,"65":-0.03361569366923374,"66":-0.08025659608150747,"67":0.13781116393184478,"68":-0.17713339725582225,"69":-0.2239157887281911,"70":-0.27874136934540134,"71":-0.11217858230156759,"72":-0.3224774180966596,"73":-0.20222261228288177,"74":-0.11715075369634892,"75":-0.29115491846426383,"76":0.012189638462436807,"77":0.005549127889579942,"78":-0.5791026171318971,"79":0.06087974955604924,"80":0.15321997639078475,"81":-0.04962429841144369,"82":-0.05537535238248826,"83":0.017438633729199963,"84":-0.3698215883099154,"85":-0.3218520150698197,"86":-0.013313862142320606,"87":-0.5269851168002879,"88":-0.29588374089254166,"89":-0.26442764041086064}},{"sx":3,"sy":3,"depth":10,"w":{"0":-0.04104422990192328,"1":-0.1743872881485001,"2":0.41594106925652247,"3":0.09021085420663601,"4":0.08454222693803057,"5":-0.038937045318911886,"6":-0.09181698603978332,"7":-0.09655803377655804,"8":-0.16627022303260863,"9":-0.10174232946920586,"10":0.12847990818542634,"11":-0.25924850079157674,"12":0.2688776913654724,"13":0.23576674588993585,"14":0.24390830104770572,"15":-0.04720722560008447,"16":-0.19806364743206806,"17":-0.23986629841207913,"18":-0.18219172609948253,"19":-0.3027369290131628,"20":-0.10392712702864955,"21":-0.14887811494839578,"22":0.1570134191769873,"23":0.1511799685451757,"24":0.05771439221925325,"25":0.06813541135992313,"26":-0.26826679103088935,"27":-0.06592150135011553,"28":-0.38656654761859194,"29":-0.33185115552032823,"30":0.09312783488917242,"31":-0.141104755874674,"32":-0.005154920595366829,"33":0.18291298749860765,"34":-0.1440555999646667,"35":-0.2493921328797096,"36":-0.18745137054702493,"37":-0.18091441700785252,"38":-0.28168373614410397,"39":-0.026906188247745412,"40":-0.17644833907834967,"41":-0.06820074724366168,"42":0.06471366181832715,"43":-0.04323674466330345,"44":0.10727953515798376,"45":0.02192695475522626,"46":-0.257882928995203,"47":-0.33084259670559646,"48":-0.30724413785197235,"49":-0.006330598140818218,"50":0.14647122149657454,"51":0.00261381238795942,"52":0.22240188009444853,"53":0.07955692871131767,"54":0.06627502982169589,"55":-0.24076716444603183,"56":-0.18875303321457657,"57":-0.03356646190615596,"58":-0.06637692858559234,"59":-0.11090306501466962,"60":0.10415090738832203,"61":-0.15908191531627208,"62":-0.10493399021191842,"63":-0.15139283338885054,"64":-0.1855763928604558,"65":-0.22122800073572316,"66":0.02851416919355113,"67":-0.12255428358051208,"68":-0.34386618003577735,"69":-0.3582906222949655,"70":-0.12734112727985858,"71":-0.08929414522883496,"72":0.05272677137954984,"73":-0.05608473303797231,"74":0.05474490598574613,"75":-0.25747053289508104,"76":-0.08947193311515185,"77":0.08501967368702702,"78":-0.26790834968516275,"79":-0.020853515945267402,"80":0.1070496487845429,"81":0.010983757652845347,"82":0.11706163350099333,"83":-0.16826966188872444,"84":-0.272864698694001,"85":-0.12156077082095251,"86":-0.29631869356140716,"87":-0.11584576831005176,"88":-0.21236972173199448,"89":-0.16575417649808794}}],"biases":{"sx":1,"sy":1,"depth":10,"w":{"0":-0.36632437541999263,"1":0.2789412250906253,"2":-0.8818597397180475,"3":-0.2478465318294465,"4":-0.04810154088398704,"5":0.09319871006421954,"6":-0.7128696776008439,"7":0.0625222124438736,"8":0.09211565730433979,"9":0.25692739235358614}}},{"out_depth":10,"out_sx":32,"out_sy":32,"layer_type":"relu"},{"sx":2,"sy":2,"stride":2,"in_depth":10,"out_depth":10,"out_sx":16,"out_sy":16,"layer_type":"pool","pad":0},{"sx":3,"sy":3,"stride":1,"in_depth":10,"out_depth":10,"out_sx":16,"out_sy":16,"layer_type":"conv","l1_decay_mul":0,"l2_decay_mul":1,"pad":1,"filters":[{"sx":3,"sy":3,"depth":10,"w":{"0":0.17916794196190397,"1":-0.17165928789456053,"2":0.08957439090447024,"3":-0.017609960810412873,"4":-0.29463362499514956,"5":-0.0910582587524243,"6":-0.1534014620772535,"7":0.027210118190143046,"8":-0.31595320449675296,"9":-0.27120067357605754,"10":0.1312200413790516,"11":-0.0671824172216537,"12":0.21778895655598193,"13":0.06022067386797109,"14":-0.2354674020260779,"15":-0.02693055112047003,"16":-0.042401426966826174,"17":-0.18516631443799667,"18":-0.09765181831072774,"19":0.0022605214458983093,"20":0.35792401818573244,"21":-0.17340575833255778,"22":0.37336474656442914,"23":0.13010690648435277,"24":-0.24638071815535958,"25":-0.08703516705739883,"26":-0.07889363226956803,"27":-0.019408209439819833,"28":-0.3762750678545753,"29":-0.1344942112953569,"30":-0.3659224260916745,"31":-0.1824008833088882,"32":-0.06699133969228013,"33":0.17413276231026792,"34":0.09302304380073208,"35":0.207486678706207,"36":-0.20295268002451705,"37":-0.03255116357012207,"38":-0.13767728374940444,"39":0.10532786568660388,"40":-0.5580215880393241,"41":-0.2600476258512668,"42":-0.19524525346951066,"43":0.03652874700115233,"44":-0.2747533329264669,"45":-0.1291497325254613,"46":-0.30189017849012495,"47":-0.22216898332500548,"48":-0.0029297164413548534,"49":-0.07604396412428645,"50":-0.17539843882692935,"51":-0.1472276626222583,"52":-0.1481402815154191,"53":-0.17571946536204258,"54":-0.03911515484911817,"55":0.15165799812492756,"56":-0.33366019525334556,"57":-0.07198083806825784,"58":-0.03004228355971046,"59":0.08518464815088578,"60":0.003369203796209006,"61":-0.15645164439154777,"62":-0.12437960116086433,"63":0.1306215211368054,"64":0.4010675136669531,"65":0.5101896336421133,"66":0.09106067111810914,"67":0.12305019020673173,"68":-0.1311961044841484,"69":-0.09982871621013642,"70":-0.2035547081162832,"71":0.02568963090330744,"72":-0.26224220770327805,"73":0.09671385124051739,"74":0.549534501103032,"75":0.12630172324304348,"76":-0.13930083014826525,"77":-0.2000425781864283,"78":-0.07957170167081767,"79":-0.0039301147355979655,"80":-0.22411723082480642,"81":0.11053194009163089,"82":-0.2817294010679033,"83":0.1361646618969309,"84":0.24260883479473644,"85":0.15268708941755962,"86":0.02704511457432289,"87":-0.24813035049453047,"88":-0.004504546270575204,"89":-0.30611158443256836}},{"sx":3,"sy":3,"depth":10,"w":{"0":0.17733638194763549,"1":-0.3207165173039827,"2":-0.14799578377147277,"3":-0.15868770686628106,"4":-0.11256324691956571,"5":-0.06451739283179404,"6":0.431898940933047,"7":-0.03209303250937596,"8":-0.43315585273518725,"9":-0.19553113344570103,"10":-0.4807858953010023,"11":-0.09602325312371353,"12":-0.16668183459374317,"13":-0.11485659593049148,"14":0.04234616346901404,"15":-0.19817642046908934,"16":-0.06339382866396913,"17":-0.06609399628441204,"18":-0.12537973203914318,"19":-0.20726885797348168,"20":-0.7770532060960169,"21":0.23433563347841269,"22":0.13048851543624498,"23":0.016621731805658936,"24":-0.1110836189559565,"25":0.10089733475963585,"26":-0.5018767853904103,"27":0.13170711905882782,"28":0.3668892296049914,"29":0.052072011097665245,"30":0.17943925168934838,"31":-0.06346085541742086,"32":-0.05348964489762656,"33":-0.2976995638395358,"34":-0.13508547827540648,"35":-0.22193455358526923,"36":0.24714623239572261,"37":-0.19686220572804214,"38":-0.5474150859844729,"39":0.019439467853295422,"40":0.04146757602437677,"41":-0.2998280142061706,"42":-0.31168005125779985,"43":-0.3291171168087208,"44":-0.06539759549706765,"45":-0.187111820729854,"46":0.09827751633021597,"47":-0.2805892444373291,"48":-0.5478027746501839,"49":0.07656399876176699,"50":-0.3135270631842666,"51":0.1780750645138504,"52":0.10429055071706601,"53":-0.2424174563341241,"54":-0.3381366180526961,"55":0.008140644483813943,"56":-0.6279214214004206,"57":-0.048687934052802445,"58":0.0334700690441721,"59":0.2103861916045084,"60":-0.1869123704917616,"61":-0.057562232978270275,"62":-0.037527627875409746,"63":-0.18103297724909895,"64":-0.19416146824849356,"65":-0.25649370357580004,"66":0.07024234698344856,"67":-0.20619339578526377,"68":-0.5173769347457412,"69":-0.1911094958466374,"70":0.14688450440622763,"71":-0.19821296304792704,"72":-0.22968039922591313,"73":-0.19011170132851885,"74":-0.1910394531812632,"75":-0.21766127450794076,"76":-0.21922936416659608,"77":-0.25646370679076325,"78":-0.3910038058396162,"79":-0.21319421057376636,"80":0.07937723123317504,"81":0.03157175330170782,"82":0.3242795725945009,"83":-0.2290712530795099,"84":-0.5439558529415377,"85":0.043154116750367025,"86":-0.3855370684724608,"87":0.005416613962384721,"88":-0.044089058427427684,"89":-0.29670603515291283}},{"sx":3,"sy":3,"depth":10,"w":{"0":-0.1638834658788366,"1":-0.09126104408913618,"2":-0.16446860350209125,"3":0.01319203407763307,"4":-0.07213242988677135,"5":0.1488203548792299,"6":-0.05064772004537274,"7":-0.018578900827342877,"8":-0.10332802935908458,"9":0.05099417555451056,"10":-0.5161165348427588,"11":0.17126264130475147,"12":0.044984265561559794,"13":-0.02972078203202818,"14":0.010622767909933462,"15":-0.13334915830170058,"16":-0.3020955209380595,"17":-0.21581193936306403,"18":-0.2133241590989583,"19":-0.07031407762859043,"20":-0.42653843882403203,"21":0.14105483740400065,"22":-0.44609740194207415,"23":0.06192312930074731,"24":0.09218547819189944,"25":0.12932119308688034,"26":-0.3808169562032262,"27":-0.21382222991474947,"28":-0.0574121753853501,"29":0.02709476954170585,"30":0.0629765335249466,"31":-0.2511213136271934,"32":-0.0005326780695237552,"33":-0.1703553903725512,"34":-0.01619411550606068,"35":-0.1409824866467016,"36":0.11920763362256505,"37":-0.10030422787138794,"38":0.054215584566322986,"39":-0.16243655397305207,"40":0.22627722425909713,"41":-0.09395184086553024,"42":0.34809551413598067,"43":-0.13346358282607068,"44":0.1665179797593514,"45":-0.35277746252963255,"46":0.39033290572437696,"47":-0.3538044773838098,"48":-0.4490828860539166,"49":-0.12913209082483684,"50":0.11153321153521638,"51":-0.07024325507039027,"52":-0.06389706614069511,"53":-0.13320683323307414,"54":0.390585720123771,"55":-0.19999501133278166,"56":-0.271322546330065,"57":-0.22184071322814308,"58":-0.28138807303231217,"59":-0.18484806073951912,"60":0.10849143340442724,"61":-0.07328972488211134,"62":0.1112261658754704,"63":0.06019276458811282,"64":-0.10060400956877606,"65":-0.15715674957261155,"66":-0.3185432072983316,"67":0.050883446860182126,"68":-0.06504702706080806,"69":-0.07153889934391712,"70":-0.2183075243590217,"71":-0.2323439215808084,"72":0.20280755160145506,"73":-0.2143655187554761,"74":-0.2673738858257268,"75":-0.119551294639722,"76":-0.0701851623743762,"77":-0.07715065305819961,"78":-0.37288496192246945,"79":-0.1501390270419615,"80":-0.19911793656183632,"81":-0.2576522305592194,"82":-0.015405879610462801,"83":-0.20419138505165518,"84":0.15227895688293358,"85":-0.06585658997206244,"86":-0.06591353255768537,"87":-0.18739494616835312,"88":-0.48190364729576063,"89":0.042257823806117936}},{"sx":3,"sy":3,"depth":10,"w":{"0":-0.2112269619588615,"1":0.03352755138691584,"2":0.03454055753997511,"3":0.05607805361992933,"4":-0.06851618416935293,"5":-0.4874124292967145,"6":-0.2389974481340502,"7":-0.0611612403927392,"8":-0.3804490860598077,"9":-0.24979232306471563,"10":-0.48683231142799954,"11":0.26795812564824817,"12":0.1905316581116354,"13":-0.09817195477691235,"14":-0.2749835831977176,"15":-0.24659441004928598,"16":-0.397324760553847,"17":-0.02085473366647552,"18":-0.37523853216489317,"19":-0.00018928215484683992,"20":-0.10208491269841316,"21":0.29485403589767106,"22":0.1277141729126718,"23":0.10125293239054144,"24":0.08422568179541622,"25":0.1789933764482446,"26":-0.3444684814479513,"27":0.007355663525345891,"28":0.1475370687941143,"29":-0.3059804300602862,"30":-0.32522124642513295,"31":-0.1583847316743387,"32":-0.004998568087663996,"33":-0.1317503601200838,"34":-0.22826526247060508,"35":-0.10892343395071141,"36":-0.23944997817219,"37":0.0636778211504229,"38":-0.24635502275302937,"39":0.21060192638538427,"40":-0.1596800957860757,"41":-0.3575372885434102,"42":-0.025847963964882315,"43":-0.184364862603535,"44":-0.6341543429482919,"45":-0.08977813946317767,"46":-0.2023723949071783,"47":0.02441345186214716,"48":-0.14434298832069448,"49":0.21974880739813846,"50":-0.23802728138117812,"51":0.24463425295635963,"52":0.04834595563177792,"53":0.02328823781835327,"54":-0.15655788961794134,"55":0.20368498172895488,"56":-0.3325643815967961,"57":0.19153624992078583,"58":0.22712424909554096,"59":0.162664738448786,"60":-0.12683419119822786,"61":0.005814341741873491,"62":-0.44284235458535465,"63":-0.09193484295345764,"64":-0.1468664808151587,"65":-0.334437224081724,"66":-0.13791108051107867,"67":-0.30732898130999337,"68":-0.1770039850312749,"69":0.27938085411309227,"70":-0.3009385403326274,"71":-0.26735656833696175,"72":-0.3481063690093509,"73":-0.08387484403935902,"74":-0.3808858587355251,"75":-0.23750442758196333,"76":0.028898881640672336,"77":-0.3356035625389322,"78":-0.07006981128242884,"79":0.0756191052089067,"80":-0.12325935956905953,"81":0.14496872963202925,"82":-0.5439976021615538,"83":0.32219211986359714,"84":-0.30823681356287386,"85":0.043071597094155076,"86":0.027730738519525996,"87":-0.06352576484372371,"88":0.24009305020627833,"89":0.17101473725030705}},{"sx":3,"sy":3,"depth":10,"w":{"0":-0.23470650328262072,"1":0.07479420683750779,"2":0.04951060133652222,"3":-0.0936634820517015,"4":-0.12145740210773576,"5":0.08018477851213712,"6":-0.2676135143398991,"7":-0.033022364510331366,"8":-0.16905146250288877,"9":-0.27387573169874013,"10":-0.16355685721840968,"11":-0.4346576922414143,"12":-0.06031362502154844,"13":0.10232427272753937,"14":0.05668256207549732,"15":0.2165012319127679,"16":0.06135223436757049,"17":0.3051284007412418,"18":-0.18637066807611508,"19":0.010302785946944561,"20":-0.31493076095866446,"21":-0.09074972476600743,"22":-0.1603768479790338,"23":0.1749729690619015,"24":0.01358754700741701,"25":0.040019189631113644,"26":-0.0795258064039566,"27":0.18706340329289828,"28":-0.08960052256783914,"29":-0.1948046515051267,"30":0.03187315069730303,"31":0.3368234706152482,"32":0.1260910340899782,"33":0.038796068580843016,"34":0.26481092050404176,"35":-0.029312120918920458,"36":0.13690001940444962,"37":-0.05762728494208712,"38":0.33706913208370054,"39":-0.15118961859361488,"40":-0.5539979971879654,"41":0.2747622249836578,"42":-0.03217593077702823,"43":0.06784613073733024,"44":0.4040609574474804,"45":-0.11939322692963007,"46":-0.250073604556425,"47":-0.04063809598334123,"48":0.33331168931002303,"49":0.19526204717370207,"50":-0.22342346955494435,"51":-0.03988606355399479,"52":-0.37670658030476906,"53":-0.0951079922332839,"54":-0.008439866853180922,"55":-0.1185203187845323,"56":-0.3160227778408088,"57":0.24267594475243467,"58":-0.15515335309891398,"59":0.06698728563030448,"60":-0.06631845026112906,"61":-0.1011600673570903,"62":-0.16514247977125632,"63":0.02085937647444345,"64":0.08761963939505021,"65":-0.051849194305660734,"66":0.15160747287401988,"67":-0.2786399385039762,"68":-0.1397626959460101,"69":-0.16317512118420016,"70":-0.24350604071187928,"71":0.2064769792188396,"72":-0.18158309627442307,"73":0.1432649753358009,"74":0.3707436255823223,"75":-0.12380868989821017,"76":-0.3334370053049669,"77":-0.12178354033805029,"78":-0.1692562946075433,"79":-0.11221017567019655,"80":-0.1664764430063277,"81":-0.025212854910871555,"82":-0.21513972395917524,"83":-0.4093902932481913,"84":-0.25781203707687156,"85":-0.5695610977255738,"86":-0.40645520157280596,"87":0.12773497057843583,"88":-0.37315357194791887,"89":0.11869197852827129}},{"sx":3,"sy":3,"depth":10,"w":{"0":0.11703260250685577,"1":-0.02657265103103327,"2":-0.012280061668011872,"3":-0.0005420199478462835,"4":0.20017426141735095,"5":-0.47303769440582905,"6":-0.2296601297625605,"7":-0.34184136149225275,"8":-0.23735951256179677,"9":-0.02945640322045355,"10":-0.029686127874094827,"11":-0.36988031387069964,"12":-0.1112888013726853,"13":-0.1966025370825322,"14":0.2633806658260547,"15":-0.05947085072028624,"16":0.3454408251052134,"17":-0.2725433458734703,"18":-0.352160201272481,"19":-0.1598370455109336,"20":0.5623759104148741,"21":-0.2597078623287772,"22":-0.2726559179483654,"23":-0.1324845384066447,"24":0.37022451829644715,"25":-0.46538316809415187,"26":0.4790569377217506,"27":-0.309834355931186,"28":-0.41065613202787743,"29":-0.012748567853181908,"30":-0.4203151207593568,"31":-0.05864375047019786,"32":0.424646947395609,"33":0.07511431630656894,"34":-0.2182668833091376,"35":-0.15395658839270765,"36":-0.10551002152902443,"37":-0.04126942422149624,"38":0.018520659971862377,"39":-0.3584489923681381,"40":-0.3617574226050685,"41":-0.10825887704348848,"42":0.48694366978169146,"43":0.10077467668283732,"44":-0.2925390749149311,"45":0.03268329847668975,"46":-0.14457718084337315,"47":0.12366827835328366,"48":-0.4432730822323332,"49":-0.16866643644484375,"50":0.2247775191887185,"51":-0.269645321541399,"52":0.1766418344541169,"53":-0.1894228043224778,"54":-0.3515155941902984,"55":-0.17885238558120936,"56":0.24348672337458285,"57":0.07249317629514403,"58":-0.3608703019673398,"59":-0.2049056467445332,"60":-0.3255075313199618,"61":-0.13548681703963417,"62":0.14315395023978264,"63":-0.05837890694365671,"64":0.44860830526634476,"65":-0.1629162999934533,"66":-0.3251204093740602,"67":0.13303293064525715,"68":0.06627890553897306,"69":0.06341261460458224,"70":-0.35967847513775536,"71":-0.25838243959023416,"72":0.13878281373759885,"73":0.09557185429307828,"74":0.49038177824089924,"75":0.7406384910136182,"76":-0.1270129091452893,"77":0.2573234266344032,"78":0.3440150195625048,"79":0.0840868014801078,"80":0.21286272815854765,"81":-0.20532812979298373,"82":-0.3979107398651728,"83":0.05472961756244724,"84":0.0930722718380967,"85":0.2135248671902946,"86":0.04757524384611033,"87":-0.010098944355266929,"88":-0.05430508602871138,"89":-0.22977938149319838}},{"sx":3,"sy":3,"depth":10,"w":{"0":-0.013593511329774183,"1":-0.1571273725459787,"2":-0.13120330361025634,"3":-0.12995972601907888,"4":-0.09858736251149083,"5":0.089025431765296,"6":-0.04920484781160023,"7":0.16807221915425746,"8":-0.12216243780538112,"9":-0.1590001812051608,"10":0.028582204534150554,"11":0.16355535122611586,"12":0.14737905391194914,"13":-0.04685261075427635,"14":0.08282070982350347,"15":-0.19070810204980218,"16":0.03214143808918671,"17":0.1653435459504092,"18":-0.010232674183609076,"19":-0.09542564373590917,"20":-0.04905134356367219,"21":-0.0033818698938767834,"22":-0.06804793780373221,"23":-0.05606761729485456,"24":-0.0683311080816638,"25":-0.09905833799756161,"26":-0.2349213231623727,"27":-0.10650836222524804,"28":0.07261515707131785,"29":-0.012350165534922521,"30":0.03901006672353032,"31":-0.069462478876812,"32":-0.12720063708363402,"33":-0.08302483385759081,"34":-0.056265259900341286,"35":0.011288903157095095,"36":0.07730584800315263,"37":-0.054217054296798725,"38":-0.006755238595473546,"39":0.01953938272412503,"40":-0.14128364713332742,"41":-0.21802946858305453,"42":-0.014742633656219112,"43":0.09262959876303291,"44":-0.0183011847915139,"45":0.06248371088699027,"46":-0.08186033783727945,"47":-0.07925100736951882,"48":-0.08593591952528332,"49":-0.16823764500982102,"50":-0.01260800278166774,"51":-0.053351247224263015,"52":-0.013497912198108409,"53":-0.00670688634606024,"54":-0.022386808247872866,"55":0.12636051737230078,"56":0.01858874090086787,"57":-0.040413045054525226,"58":0.0706084590986919,"59":-0.07456933428244307,"60":-0.10919879759902412,"61":-0.010451320616838783,"62":0.11563557206456934,"63":0.030494155261862447,"64":-0.06644367390406526,"65":0.06319687606788754,"66":-0.09756512843920231,"67":-0.017515105982535594,"68":-0.08079779876561043,"69":-0.06320404433335151,"70":0.015824379506424856,"71":-0.1515911846722521,"72":-0.13665283359262603,"73":0.007134051944527666,"74":-0.07172726746100884,"75":0.09205623635921074,"76":-0.01642946558411053,"77":-0.08189479355655194,"78":0.060123270272534016,"79":-0.19376835172744364,"80":0.010107214793921975,"81":-0.13712958930285066,"82":-0.0947907920412929,"83":-0.0558713257184574,"84":0.0248995635655428,"85":-0.27667044631963117,"86":-0.1167268689924247,"87":0.0800606980758199,"88":0.012084666278623538,"89":-0.0877880767051133}},{"sx":3,"sy":3,"depth":10,"w":{"0":-0.2298577242019492,"1":0.22595362661898363,"2":-0.03839657506332626,"3":0.01580070047640552,"4":-0.3459241092447336,"5":0.14050588651712523,"6":-0.11864453225492534,"7":0.19529049691818295,"8":0.17303308068857096,"9":-0.04364986940009329,"10":0.013467687990555043,"11":-0.03725054135727293,"12":0.059628200974062684,"13":0.1162239247319135,"14":-0.37276552248982797,"15":-0.08569787096661922,"16":-0.08158960094423823,"17":0.0003098730714177674,"18":0.176952043549952,"19":0.026313604705070198,"20":-0.37450676104470865,"21":-0.31389892167769917,"22":-0.04668013816962076,"23":-0.03643108682839966,"24":-0.07187722580664524,"25":0.1166207238869716,"26":-0.013560759577228654,"27":0.503519574120875,"28":0.2752276935704776,"29":0.10676229521054635,"30":-0.3892854608936012,"31":0.25762828407210087,"32":-0.08579967295341995,"33":0.07887001722709507,"34":0.1940597158239671,"35":0.041289756244640805,"36":-0.27321699089779433,"37":-0.14627482073589046,"38":0.2691545855228493,"39":-0.20467523745551452,"40":-0.38165565488752373,"41":0.03536814027721466,"42":-0.2134771931411198,"43":0.03575392936364247,"44":-0.015166288712270928,"45":0.25483366615597874,"46":-0.20636466271790477,"47":-0.3457438784283389,"48":0.3805249651730852,"49":0.17322716849464634,"50":-0.28342752068013943,"51":-0.005892517522933591,"52":-0.20806308885958977,"53":0.18509695739087004,"54":-0.10872389476181757,"55":0.2907380165899558,"56":-0.198716806476787,"57":0.1808842199462838,"58":-0.02425921712743681,"59":0.0896488167021949,"60":-0.06404659519400772,"61":-0.2954023473455685,"62":-0.012232988723722613,"63":-0.06683008653292954,"64":0.25671190088494816,"65":-0.3611245605622079,"66":-0.18260189607921712,"67":-0.18296018900367172,"68":-0.49796094117540335,"69":-0.1979228318989783,"70":-0.3358636651375752,"71":0.15448730456669113,"72":-0.5000633565005245,"73":0.06162347059641385,"74":0.012199013774835114,"75":0.016663477240729793,"76":-0.135977597683288,"77":-0.22274930714088123,"78":0.11563706464288555,"79":-0.18182226931332124,"80":0.06518094182735135,"81":0.22245598849510018,"82":-0.055437460305854204,"83":0.06227261068245269,"84":0.2936266315361216,"85":-0.5130675678342282,"86":-0.20785317485777444,"87":0.30126623587663787,"88":0.07564554667049489,"89":0.24554080464321468}},{"sx":3,"sy":3,"depth":10,"w":{"0":-0.4597812172037126,"1":-0.07126439613849789,"2":-0.08165911926644617,"3":0.06609704742402348,"4":0.23737318371014393,"5":-0.3484709163464021,"6":-0.1772701543620869,"7":-0.0684018157810838,"8":0.042101213636301545,"9":0.11750142124721981,"10":0.2342648686840659,"11":-0.01403560551173597,"12":0.06885485960777041,"13":0.14967335660589426,"14":0.3170839329307397,"15":-0.011886202753649036,"16":-0.12472354793630801,"17":-0.001970998282856522,"18":-0.003608589707603225,"19":-0.11752890911270171,"20":-0.03260638710928122,"21":0.08469776120026697,"22":0.003628000355161066,"23":-0.04504329961873855,"24":0.1657154783326035,"25":-0.2377017949121265,"26":-0.08248061323309522,"27":-0.07945056005274491,"28":-0.032098781446178865,"29":-0.18599219671485778,"30":-0.26370623796054576,"31":-0.21439599239306473,"32":0.14448532714707316,"33":0.17003505131018126,"34":0.19069224977709584,"35":-0.39318405627905306,"36":-0.44252459139248096,"37":0.17709087746710467,"38":-0.014122852678869596,"39":0.08684927405832148,"40":0.24580665930423348,"41":-0.2897142250274601,"42":0.06818568705907893,"43":-0.0920116122357489,"44":-0.18464594989318114,"45":-0.03243124894318583,"46":0.14297139255857186,"47":-0.08058152882519899,"48":-0.2761353745084695,"49":-0.12565337994050071,"50":0.028265785216963282,"51":-0.4344872299853526,"52":0.08582836851344071,"53":-0.1652011828349429,"54":-0.29997439530289877,"55":-0.25952824274846104,"56":-0.043082636703209054,"57":-0.05926698516903152,"58":-0.5013828185105755,"59":-0.2608535458192164,"60":0.10279730937167879,"61":-0.11051838072186289,"62":-0.04430362941078877,"63":0.22461229372721284,"64":-0.37442249290445856,"65":-0.12394797567972166,"66":-0.06708047161430798,"67":0.3648421245930024,"68":-0.19042703611677336,"69":0.10189213758868435,"70":0.038897529107033,"71":-0.2270808619054072,"72":0.04896972361138487,"73":-0.05279020081118642,"74":-0.29914066155394664,"75":-0.20520875899687754,"76":-0.12026742370085532,"77":-0.15775353346410453,"78":-0.21119120652456363,"79":-0.12838001182381178,"80":-0.04160830279886748,"81":-0.07627708102919016,"82":0.15235545039901224,"83":-0.03387718492028734,"84":-0.5262406328471164,"85":-0.23151690788090082,"86":-0.17268019694014208,"87":-0.16373240418766416,"88":-0.2917590154404572,"89":-0.1329537208887244}},{"sx":3,"sy":3,"depth":10,"w":{"0":0.4034696936871651,"1":-0.0720021114568235,"2":-0.07686831926392426,"3":-0.013363897116784745,"4":-0.036621550741673364,"5":0.2694903811906576,"6":-0.1123331838857654,"7":0.40253117825734475,"8":-0.027661298524772754,"9":-0.08592555299840472,"10":0.13434206902398874,"11":-0.23123382669594536,"12":-0.2608211882143274,"13":-0.045195808423742635,"14":0.0304991774911731,"15":0.1462171643723226,"16":0.13642230414407214,"17":0.11486669667457063,"18":-0.2601435993821389,"19":-0.19038399825477156,"20":-0.1811895810475365,"21":-0.16226101138035132,"22":-0.08311110065541329,"23":0.17011742940837551,"24":0.18703133864469726,"25":-0.19437105764220905,"26":-0.1386482831758294,"27":-0.0035357023590958563,"28":-0.1033180642533869,"29":-0.4113586476671132,"30":0.17718327569596787,"31":-0.11737090152401593,"32":-0.07507361325622135,"33":-0.06819147570385334,"34":-0.2475715356722909,"35":0.05875678853469295,"36":0.050007759849334435,"37":0.17293438008066636,"38":-0.3505069574368512,"39":-0.27775083135864476,"40":0.24884830097875418,"41":-0.22655046817170385,"42":0.09231664008141025,"43":-0.16097722955399477,"44":-0.2391676252883478,"45":-0.040551240778515234,"46":0.1893093169906731,"47":-0.24795466230389426,"48":-0.26089973331619526,"49":-0.27325666858127134,"50":-0.044274205893946955,"51":-0.20872723271218513,"52":-0.030301330471545262,"53":-0.08639988652036319,"54":0.05768322144155687,"55":-0.14512408273849015,"56":-0.14207152327895575,"57":-0.07000306393386335,"58":-0.3706059205142087,"59":-0.36209249777377844,"60":-0.3455705600967258,"61":-0.1667216441173573,"62":-0.1074236646378968,"63":0.02410233462763933,"64":-0.23038573373893756,"65":0.1862013951949056,"66":-0.3429865020501636,"67":-0.0950344711357148,"68":-0.09137100176022689,"69":-0.33151710061214396,"70":-0.2841895439272396,"71":-0.2785506428649705,"72":-0.26377735983989253,"73":-0.1547532939040232,"74":-0.23704670463717875,"75":-0.02948491601400493,"76":-0.3413832029846783,"77":-0.31395066268709965,"78":-0.07820012965592182,"79":-0.2019595247195341,"80":-0.4272350370762509,"81":-0.34310705222771043,"82":-0.12281320742459699,"83":-0.15196319942804956,"84":-0.17203160864336145,"85":-0.172848804452141,"86":-0.15264343495366112,"87":-0.3091340056952213,"88":-0.19278763002124524,"89":-0.34571648581179226}}],"biases":{"sx":1,"sy":1,"depth":10,"w":{"0":-0.21094652547842369,"1":0.6014228697008631,"2":-0.33311242083673176,"3":-0.2896463970823445,"4":-0.1978805575087635,"5":-0.09656500427362895,"6":-0.07412652184493033,"7":-0.34663202597598985,"8":0.14660376920592844,"9":0.8856687673737427}}},{"out_depth":10,"out_sx":16,"out_sy":16,"layer_type":"relu"},{"sx":3,"sy":3,"stride":1,"in_depth":10,"out_depth":10,"out_sx":16,"out_sy":16,"layer_type":"conv","l1_decay_mul":0,"l2_decay_mul":1,"pad":1,"filters":[{"sx":3,"sy":3,"depth":10,"w":{"0":-0.036368411357842904,"1":0.04951515904593169,"2":-0.11980737707377473,"3":-0.004707584880831225,"4":0.12864216433567421,"5":-0.0807171630714377,"6":-0.08257080009732834,"7":-0.13214783354786022,"8":0.003805963303275391,"9":-0.0024618799961027057,"10":0.01805848459279919,"11":-0.13998369214268475,"12":0.06432795591373473,"13":-0.15627887501808643,"14":-0.04236876358111685,"15":-0.10975331604606772,"16":-0.05690366731118806,"17":-0.15987563366481897,"18":-0.15464308043816,"19":-0.07612898806142701,"20":-0.22384976941344964,"21":-0.08001200608647466,"22":-0.02397083467544763,"23":0.0638492604513976,"24":-0.13694339528525737,"25":-0.03687992886786313,"26":-0.03187654434264668,"27":-0.17237815725815445,"28":-0.2671933127006963,"29":0.009076105623836995,"30":0.025572802491811413,"31":-0.062020320001767916,"32":-0.26725434015477967,"33":-0.0026518292691533733,"34":-0.11423314149243118,"35":-0.03657393099057882,"36":-0.048132985850637085,"37":0.06926539389839463,"38":-0.0684577753989883,"39":-0.2447782836042381,"40":0.08241975998905045,"41":0.05779752629041494,"42":0.0010386864675928688,"43":-0.1668876272734587,"44":-0.01421640838826945,"45":0.06614548251435283,"46":-0.0035945095489650137,"47":-0.04911145770335408,"48":0.019078553395523987,"49":-0.11796678186085148,"50":-0.17511572529969566,"51":-0.21666489937559394,"52":-0.03360803855244234,"53":0.03874231030645974,"54":-0.20477984523817158,"55":-0.013581282365317133,"56":-0.0007342791345351495,"57":-0.057374790512885764,"58":0.09020954052344714,"59":-0.13028763329970766,"60":-0.18069010721103423,"61":-0.03357784962473045,"62":-0.01139791115248158,"63":-0.17743316030180353,"64":-0.13083649043161988,"65":-0.08458481113531331,"66":0.03752043892508857,"67":-0.30624379871345353,"68":-0.1168218111584853,"69":0.2100101317427061,"70":-0.1568737476411039,"71":0.24767972696990967,"72":-0.08279013972843492,"73":-0.1180919903047273,"74":-0.14474628195733558,"75":-0.043231640173859644,"76":0.1530173788077952,"77":-0.06454720185150152,"78":-0.0793398128009333,"79":-0.020335922560394595,"80":0.05135741273699504,"81":0.107398560962052,"82":-0.17282848008921425,"83":0.09268619557078585,"84":-0.06031066693027522,"85":-0.044484852012542785,"86":0.013033562803911084,"87":-0.10066672575150742,"88":-0.01995162265258373,"89":-0.14146118853762388}},{"sx":3,"sy":3,"depth":10,"w":{"0":0.004570430641166752,"1":-0.0479054314290273,"2":-0.03864548762049997,"3":-0.23127987716444304,"4":-0.16486529669954753,"5":-0.1407272540313825,"6":0.04074375930980491,"7":0.28776605310347464,"8":-0.03132623631396767,"9":-0.12906106869510744,"10":0.16452471903344124,"11":-0.1592141027496196,"12":-0.048980900572055765,"13":-0.10146934653884493,"14":-0.042618728372530716,"15":-0.16058182442727492,"16":0.13350697833870462,"17":-0.0657646360581687,"18":0.11348241208769745,"19":-0.3407355559532525,"20":0.1843399255366732,"21":-0.03660938883537642,"22":-0.151612489158256,"23":-0.14318940173720146,"24":-0.09955267484285232,"25":-0.08399826869526665,"26":0.14393270329733948,"27":0.19311804032998764,"28":-0.4578919201495136,"29":-0.3695289215102196,"30":-0.229603994560994,"31":-0.19073325296951413,"32":0.03684859498632867,"33":-0.16096383443075132,"34":-0.1313574898379489,"35":-0.30666000118966547,"36":-0.07826445076516227,"37":-0.34947291764525096,"38":0.08347875338534996,"39":0.06659735619540444,"40":0.09647322323850653,"41":-0.12324999464331414,"42":0.37746980794363433,"43":-0.3371953250130015,"44":-0.20621939791173455,"45":-0.5822695756416733,"46":-0.09703680009415871,"47":-0.21515743128911288,"48":0.2845914635231269,"49":0.27212621458844655,"50":-0.20261811767622903,"51":-0.08945183785401256,"52":0.18307303460561472,"53":-0.3878951520424841,"54":-0.17697818387572542,"55":-0.4529986588659091,"56":0.024842666197968866,"57":-0.31539913223928406,"58":0.009776619007899216,"59":0.2341547394044815,"60":-0.09056737728505924,"61":-0.1254762296048116,"62":-0.22968756433667592,"63":0.1629681660210938,"64":-0.11435210748496652,"65":0.306012873590546,"66":-0.07765913242083415,"67":-0.24378879145002053,"68":-0.11130105057789187,"69":0.13860835319453071,"70":-0.005349272103293022,"71":-0.018457988055063868,"72":-0.36670403894083164,"73":-0.03464689395499203,"74":-0.0815295565466448,"75":0.25653578372723834,"76":-0.09677262694562307,"77":-0.1866442446762605,"78":0.02326766240080224,"79":-0.2142708703541137,"80":0.006592662279664645,"81":0.16340774430606433,"82":-0.059911576798182646,"83":0.1745965976267757,"84":-0.14476200895074706,"85":0.24495101186878598,"86":0.05150439100258115,"87":-0.18814115595917194,"88":-0.15801076834339148,"89":-0.21041271392115088}},{"sx":3,"sy":3,"depth":10,"w":{"0":-0.06964249915653149,"1":-0.25290943427352824,"2":-0.22932498288385125,"3":-0.36019127510634374,"4":-0.01469543461838953,"5":0.28430297472522337,"6":0.11239729146252332,"7":-0.0888682788822981,"8":0.3799883949305052,"9":-0.00943227358771929,"10":-0.10800811157644041,"11":-0.16026288500051541,"12":0.12219904826398016,"13":-0.3574074323487423,"14":-0.24825819284094033,"15":-0.21632526847775596,"16":0.0717681322617719,"17":-0.20181107643561064,"18":0.36363635464892535,"19":0.2502289131575382,"20":0.020783648788445346,"21":0.26917278090327973,"22":0.12385681568823964,"23":-0.03860981988401041,"24":-0.0556529063247574,"25":-0.04335953783251346,"26":-0.0011454088187346177,"27":-0.15477832063281596,"28":-0.24739198868879303,"29":0.3565709433420077,"30":-0.1797399820814023,"31":-0.22887762962840102,"32":0.00014978066857175923,"33":-0.19922242489430136,"34":-0.09598118666770648,"35":0.07635318890825603,"36":0.061236901782533125,"37":-0.10613602054926792,"38":0.19863140607486698,"39":0.03295814395515687,"40":-0.006063892675947697,"41":0.05407839231515149,"42":-0.08204627934029031,"43":-0.2918890858342637,"44":-0.14607772150871198,"45":-0.22952647161499623,"46":0.018256605162420097,"47":-0.16075223034570657,"48":-0.10023754495499343,"49":0.4356658042919462,"50":-0.15931991158811365,"51":0.43224870753259875,"52":-0.05882794343087623,"53":0.19846943936480016,"54":0.13830732929953926,"55":-0.21331907195554184,"56":-0.05779312193715901,"57":-0.11732738999363276,"58":-0.2186652547353697,"59":0.1388305437157676,"60":0.01952551166922322,"61":-0.24969666313843544,"62":-0.12478284843884543,"63":-0.3338996765291905,"64":-0.36965357221354433,"65":-0.0045377371833596036,"66":0.056420675814878196,"67":-0.11622299143047844,"68":-0.06183175943290799,"69":-0.21631392501770993,"70":-0.19968017454566003,"71":0.12774310076659207,"72":-0.19488492604720076,"73":-0.19419136203241982,"74":-0.31920090728124223,"75":-0.34853133728699603,"76":-0.05030206065156385,"77":-0.23242712435555304,"78":-0.04038148630782283,"79":0.06312969675802012,"80":-0.07407951456589774,"81":0.1600539647806533,"82":0.07700949841086938,"83":-0.05260123897806711,"84":-0.14989005888315432,"85":-0.2506104589371694,"86":0.24801537640972987,"87":-0.057491128358512764,"88":-0.045937432629960265,"89":-0.04217066726323012}},{"sx":3,"sy":3,"depth":10,"w":{"0":0.08588238900519192,"1":0.20949584727667023,"2":0.5492416797853369,"3":-0.6199175648108093,"4":-0.04491544123402538,"5":0.32134493597435937,"6":0.14425912880985378,"7":0.03645328146941518,"8":-0.10136562404012024,"9":0.2514429232962424,"10":-0.040344971296584195,"11":0.0058813432597429865,"12":-0.3602513208603131,"13":-0.20342010608653735,"14":0.23250379467789473,"15":-0.07769518698858185,"16":-0.04481660958456208,"17":0.3730436486966685,"18":-0.2787756131029411,"19":-0.21502542364146726,"20":-0.03413382081617445,"21":-0.1730051895780835,"22":-0.7037305950808953,"23":-0.2805082474936538,"24":0.19002638859949048,"25":0.07484635299286226,"26":0.0004818847842782344,"27":0.14198824436076504,"28":-0.39982531197804627,"29":-0.48436231369851607,"30":-0.11110562951890446,"31":0.20521282886699535,"32":0.5407578983858214,"33":-0.525665766494827,"34":-0.04187298470512835,"35":0.1295089232689743,"36":-0.016871850921909556,"37":-0.3816053209560749,"38":0.0051682905737275,"39":0.32738012689213947,"40":-0.19695010301575153,"41":0.2620055750050631,"42":-0.013797820781762329,"43":-0.08538912880683211,"44":-0.08922624681660665,"45":-0.16124606535625313,"46":-0.05448293164468012,"47":-0.04593417231506405,"48":-0.08874284559627243,"49":-0.3878195947364174,"50":-0.08665467433829431,"51":-0.39651433684539683,"52":-0.5255516413520476,"53":-0.11227335852110773,"54":0.1579567998476557,"55":-0.21214978867329895,"56":-0.05692043157097081,"57":-0.12542785627489558,"58":-0.30314808891169015,"59":-0.5432414017428195,"60":-0.09711498550870433,"61":-0.041394381996602087,"62":-0.1842492708838677,"63":-0.37187215422783804,"64":-0.6258012080793994,"65":-0.3951895511328626,"66":0.20129437435743774,"67":-0.525884171596449,"68":0.08681820974317239,"69":0.09423799905964184,"70":-0.27585338451990266,"71":0.5024653644690392,"72":-0.020824552306787557,"73":0.14540936113770078,"74":-0.39067447150056656,"75":-0.08443670546062486,"76":-0.11373718854731649,"77":-0.4201431113582149,"78":0.0929198408967335,"79":0.16260917526621058,"80":-0.06196996917380042,"81":-0.32951960758882537,"82":0.15318092550989912,"83":0.38410935270457913,"84":-0.11460711749475105,"85":-0.09585514018055671,"86":0.017714704936608403,"87":-0.5057058107170452,"88":0.06500928815693763,"89":-0.19002284427399296}},{"sx":3,"sy":3,"depth":10,"w":{"0":-0.1230697613746246,"1":0.013436925224809024,"2":-0.040090744718454766,"3":-0.200576082996952,"4":-0.11957818250939528,"5":-0.17807801322603614,"6":-0.1226301003871355,"7":-0.35039284737921134,"8":-0.17800313602885068,"9":0.24624275586540656,"10":-0.16823699634867767,"11":0.3365374853335276,"12":-0.14631538895413745,"13":0.14314917714787315,"14":-0.10635875874529518,"15":-0.1226554936816797,"16":-0.04451658600699395,"17":-0.16226318384417368,"18":-0.16475395614871075,"19":-0.18038391021526332,"20":-0.2299680578889657,"21":0.11914992562739303,"22":-0.3087962712514787,"23":-0.004387076988789652,"24":0.2501374587416895,"25":-0.07106571859776387,"26":0.06909767692838165,"27":0.04170362336770863,"28":-0.20761594637776062,"29":-0.35778522547776853,"30":-0.18642127946452747,"31":0.07333312788664552,"32":-0.22114250391027443,"33":-0.26382674160274855,"34":-0.14705890862066634,"35":-0.0004439488456482696,"36":-0.008868434499544251,"37":-0.2917017514451789,"38":-0.19463898137177663,"39":0.17409215577728981,"40":-0.04171890463017692,"41":0.32006992488485103,"42":-0.17346747120561068,"43":-0.16700445386492352,"44":0.04490674155649429,"45":-0.1567890490171676,"46":0.06404035366020269,"47":-0.05656371454334485,"48":-0.26993704093922405,"49":-0.3271796453508023,"50":-0.13229520017944021,"51":0.13106335734283087,"52":-0.012579449246434527,"53":0.11703635600891242,"54":0.021014692347367775,"55":-0.08261466285477889,"56":-0.030043242784357497,"57":-0.11852660222638872,"58":-0.15532025637388486,"59":-0.275889206326986,"60":-0.2545161958054216,"61":-0.13029103862900443,"62":0.057389246407016974,"63":-0.20832870743013285,"64":-0.08247182576760864,"65":-0.016955546743806813,"66":-0.04871940268419865,"67":-0.2810080414683224,"68":0.05249278298054032,"69":-0.2538025594897835,"70":-0.07799704899443215,"71":-0.08544884787521856,"72":0.0388138553938584,"73":-0.19549682774713442,"74":0.017638652865866963,"75":0.025410660806035757,"76":-0.014930520907990436,"77":-0.05264737136925449,"78":0.06459285416234234,"79":0.13430793713740896,"80":-0.1997241434013519,"81":0.018802671393340024,"82":-0.051577519862878396,"83":0.26718335360802936,"84":-0.06893691955817359,"85":0.03170039469264748,"86":-0.009078743814162328,"87":-0.001992098708365994,"88":-0.02646906914198068,"89":-0.17669036117302525}},{"sx":3,"sy":3,"depth":10,"w":{"0":0.007192815943839138,"1":-0.06472708889579203,"2":0.0015376689842507866,"3":-0.1444767079007306,"4":0.012006422203379016,"5":0.1148269150816842,"6":-0.032189238403753664,"7":-0.4091612619155682,"8":0.05540918097757262,"9":0.018461624787294146,"10":0.023097859783284363,"11":0.10791761885512811,"12":-0.09869558152385059,"13":-0.21135124183471718,"14":-0.10174406185711399,"15":0.5677594606651891,"16":-0.1405478107322839,"17":-0.3189130177822772,"18":0.16823179747176648,"19":0.49132719325411006,"20":0.18406825579314398,"21":0.0696513479942826,"22":-0.22186127558208776,"23":0.14212265194791018,"24":-0.08216000629633154,"25":0.07695632396321478,"26":0.12986205676997253,"27":-0.4380050335676216,"28":-0.05317766975598766,"29":0.3936836854292941,"30":-0.1153926879759042,"31":-0.044995983748453844,"32":-0.12801919581420007,"33":-0.3157970412782478,"34":-0.0007172804669873805,"35":0.1114012546413821,"36":-0.03007326573273449,"37":-0.2576048631739731,"38":-0.3410445067497346,"39":-0.10099862486521115,"40":0.03279178118837531,"41":-0.032219104496416344,"42":0.11151565456484455,"43":-0.16740283305788725,"44":0.05072936250846743,"45":0.09229261359391004,"46":0.17502627711250554,"47":-0.6130636420984527,"48":-0.0071896194365149955,"49":0.0739477067009603,"50":-0.013490236048406818,"51":-0.016357027006840788,"52":0.0983841808851306,"53":-0.017915570364911138,"54":-0.25002940725650513,"55":-0.3828256635040921,"56":0.09628199056530606,"57":-0.10195677933880706,"58":-0.23595089192594326,"59":0.23851878520409472,"60":-0.19027715017894326,"61":-0.5051456143427351,"62":-0.18676087878968006,"63":0.09812491200066716,"64":0.13723209961604194,"65":-0.006635045868140751,"66":-0.034850810550299906,"67":-0.008633378497468721,"68":-0.18393512774430903,"69":-0.27418796106153365,"70":0.03825473095099547,"71":-0.25341158827787286,"72":-0.152108722773879,"73":-0.34715997554907263,"74":-0.05174908366844094,"75":0.36955348899450474,"76":0.08738860969048193,"77":0.02452301260042607,"78":-0.15485928624271136,"79":-0.30912091462140984,"80":0.4379319770454966,"81":-0.2718663261186233,"82":-0.16480915898323278,"83":-0.32799813432133357,"84":-0.11753120897369077,"85":-0.2863039477807906,"86":0.06660054868006217,"87":0.05736830521015148,"88":0.07733717895245792,"89":-0.25365823270674637}},{"sx":3,"sy":3,"depth":10,"w":{"0":-0.16659197885953259,"1":0.4636750207736735,"2":0.05302816654007969,"3":-0.40649656626117925,"4":-0.12805979904065345,"5":-0.2585309409509833,"6":0.09841626974433909,"7":-0.10572537559275867,"8":0.4607696766702304,"9":0.17675878216822827,"10":-0.001748748883920268,"11":0.28642904015212833,"12":0.17280725148831133,"13":-0.6855601754728855,"14":-0.12105285611717204,"15":-0.4017557445886391,"16":-0.03634491678901832,"17":-0.12615743238394087,"18":0.37016792843556917,"19":0.44179909440987053,"20":-0.14582935553797396,"21":0.06325552928750709,"22":0.17950347671001293,"23":-0.6456788173466405,"24":-0.07841557623140091,"25":-0.20013187775061794,"26":0.11175354458985917,"27":-0.43673245056987314,"28":0.10254432538889283,"29":0.061696617378924734,"30":-0.13093155299248904,"31":0.17154363585144425,"32":0.004345832527468133,"33":-0.22868483310131552,"34":-0.5819727925206685,"35":0.5472061085850634,"36":0.06757821844576781,"37":-0.3902322921979175,"38":-0.20906201778147607,"39":0.1113675308633082,"40":-0.24045888746884297,"41":-0.10033026692541824,"42":-0.09467445935102119,"43":-0.4326694425071237,"44":-0.2987863211268375,"45":0.16897128092394773,"46":0.06101098865492131,"47":-0.37468073618634434,"48":-0.2397456354242781,"49":0.18815949643164595,"50":-0.1498614837362582,"51":0.33567233451920875,"52":0.07593590129771086,"53":-0.37453630654398923,"54":-0.4686173646503311,"55":0.04836825104758338,"56":-0.0502100944422312,"57":-0.2367262450995718,"58":-0.019647503440773654,"59":0.02940135245521661,"60":0.448346836572507,"61":-0.04061725237684816,"62":-0.3579487954005017,"63":0.3645881863314118,"64":0.2051499791913949,"65":-0.2604611850727822,"66":0.008533531250354859,"67":0.22884116124431028,"68":-0.39999930777519305,"69":-0.4017182361190951,"70":0.4050832773090474,"71":-0.15934345424196775,"72":-0.35452802755583557,"73":0.29697197075117315,"74":0.12648268754947747,"75":0.11511999635246951,"76":-0.062074509820967155,"77":-0.13248923743023114,"78":-0.49313476385718663,"79":-0.2654570582714936,"80":0.35580194205068333,"81":-0.4676137748940544,"82":-0.25829754299008284,"83":0.6183168110249238,"84":0.16447494079775105,"85":0.28323259350182867,"86":0.14010165467754687,"87":0.07605980803812393,"88":-0.13156191379702314,"89":-0.2926092923400354}},{"sx":3,"sy":3,"depth":10,"w":{"0":-0.2904179668767669,"1":-0.029660863909941052,"2":-0.0813062218727158,"3":0.10901208089091595,"4":-0.1291577709508129,"5":0.03479679652476806,"6":0.09447735838012879,"7":-0.15701478194116678,"8":-0.11410271807464198,"9":-0.036426252933699256,"10":-0.006517835460122784,"11":-0.02446519223058987,"12":0.01923963684059772,"13":0.06495846806937326,"14":-0.4360370828012943,"15":0.014735741605864152,"16":-0.10099895809080892,"17":-0.2588216500135196,"18":-0.07680075728311866,"19":0.1954774117654294,"20":0.1370236056073905,"21":-0.38360960496231133,"22":-0.12396217131656291,"23":0.05384202155267104,"24":-0.20610585270436144,"25":-0.16798064507857058,"26":0.17498583431824738,"27":-0.32415948017659557,"28":-0.02912926174527916,"29":-0.012193634739312903,"30":-0.08477435067254652,"31":-0.3346799631479381,"32":-0.0809170534266588,"33":0.40317332260921795,"34":-0.30399761974639006,"35":0.2960336848953898,"36":0.14144955663747658,"37":0.000752099822291894,"38":-0.03586685265085287,"39":-0.24033428787736436,"40":-0.0789841097700109,"41":-0.20800282576124995,"42":-0.1426585880849703,"43":0.22531835140508305,"44":-0.46117440750846067,"45":0.3202346418260261,"46":0.11938194694710988,"47":-0.3985048906263985,"48":-0.2001820943394637,"49":-0.17178561645663018,"50":-0.11914499734616393,"51":-0.23278718067274573,"52":0.02929356433347035,"53":0.18434831663107754,"54":-0.04741894533846586,"55":-0.10972873179292607,"56":-0.0601896505633882,"57":-0.28708055649308656,"58":-0.20120007986193064,"59":0.059290773984333786,"60":0.12046794024109769,"61":-0.18584236898347176,"62":-0.15459654971001605,"63":-0.3858202817337029,"64":0.1730713853161913,"65":-0.261047324804412,"66":-0.03383138000972731,"67":0.0365803157161788,"68":-0.041678818768504544,"69":-0.11666070064646783,"70":0.2470112261258554,"71":-0.34732221607721003,"72":-0.3555957183452422,"73":-0.714695690764644,"74":0.27875243902212954,"75":-0.26066726476474705,"76":-0.11027589378649136,"77":0.4317078287828008,"78":0.0706682319401476,"79":-0.21652277121385927,"80":-0.17083365581448393,"81":-0.12203455249620933,"82":-0.21103187802821607,"83":-0.3998309568112701,"84":0.3260113630875248,"85":-0.12470237091415409,"86":-0.04364828669150183,"87":0.5920454239330805,"88":0.0028097291893874722,"89":-0.08123256681231476}},{"sx":3,"sy":3,"depth":10,"w":{"0":-0.01656343691344637,"1":-0.025996480677046106,"2":0.029153381192175917,"3":0.15972335602630286,"4":-0.23723152103657566,"5":-0.20694443505554855,"6":0.10753257141447661,"7":0.030485258354267353,"8":-0.08019983270998077,"9":-0.20187147597684157,"10":0.11141811010852211,"11":0.05499325761927659,"12":-0.31486749329867925,"13":-0.07666826614795479,"14":-0.09708416517879509,"15":-0.12628995549797364,"16":0.15677782312770613,"17":0.01821934908266021,"18":-0.11616507201701791,"19":-0.06901801852767528,"20":0.0706596252947525,"21":0.06641326251596247,"22":-0.08332465905127066,"23":-0.1348194205734206,"24":-0.054351380156057956,"25":-0.31443830294058506,"26":-0.08626404389198966,"27":-0.13212743040731695,"28":-0.09517445051937462,"29":-0.07416173513551895,"30":0.09622983253469494,"31":0.048202078335324874,"32":-0.0845673656631856,"33":-0.06300862119314797,"34":0.1846371889961251,"35":-0.12932608573799978,"36":0.16898972982044058,"37":0.22668930430386308,"38":-0.043205975570080206,"39":0.04481919903859277,"40":-0.038878053409359715,"41":0.013541808766212441,"42":-0.038970921424903944,"43":-0.10994561995009382,"44":0.32909859402280645,"45":-0.04728906201872628,"46":-0.002901523289978205,"47":-0.34002355603451206,"48":-0.0047230286935871415,"49":-0.029761026984178266,"50":-0.06698943845652137,"51":-0.2037195698753935,"52":-0.03880472768974842,"53":-0.2023558115881435,"54":-0.27860002812621176,"55":-0.03665976247776215,"56":0.10941855891865943,"57":-0.2345371608194683,"58":0.16556169244425736,"59":-0.11609191026234708,"60":-0.02846566426671284,"61":-0.07830282300123018,"62":-0.025285233900866448,"63":-0.11856025757792214,"64":0.28805834483065823,"65":-0.02856023570392874,"66":0.1978278983298316,"67":0.2727744453794598,"68":-0.24895520063905827,"69":-0.015678805985805275,"70":-0.09962485326998845,"71":-0.25187120995786993,"72":-0.049109963729636566,"73":-0.2549575180836512,"74":0.3501605730617765,"75":-0.11537429482228757,"76":-0.0827470775220745,"77":-0.14509825701107212,"78":0.12514665174607373,"79":-0.0895083997444421,"80":-0.1568718801583854,"81":-0.037682243795307255,"82":-0.26832909268550936,"83":-0.14814763114300666,"84":-0.29703946146120147,"85":-0.08676341285815614,"86":-0.09212094424723996,"87":-0.16710741746553864,"88":0.003994940619652974,"89":-0.062045644256181705}},{"sx":3,"sy":3,"depth":10,"w":{"0":-0.10367183695328347,"1":0.2596683311367293,"2":-0.10046497482566098,"3":-0.19153012896103072,"4":-0.36099872593203614,"5":-0.23517995445066464,"6":-0.03982200355896388,"7":-0.5786628397823744,"8":-0.30496810901920374,"9":-0.07764884194452336,"10":-0.3735481976792254,"11":0.03225960464408159,"12":-0.39938039457101393,"13":-0.015952966835186544,"14":-0.20015192072888344,"15":-0.47280892506940636,"16":0.050271777851192835,"17":0.12937026824954811,"18":-0.009608499468561803,"19":-0.19554614976139734,"20":-0.05733781019103199,"21":-0.13029881723300946,"22":-0.01756263060853299,"23":-0.21738457045614265,"24":0.007158288449462031,"25":-0.0995873045214195,"26":-0.007086478027935941,"27":-0.2322145339918081,"28":-0.21105669525321816,"29":-0.15329633985140395,"30":-0.23607128589661722,"31":-0.0035557138309354353,"32":-0.00022207291591592963,"33":0.27004535452556494,"34":-0.12577511698450983,"35":-0.42323220104613857,"36":-0.12653309243535144,"37":-0.19044214388481784,"38":-0.31818094060374486,"39":-0.10578315523435945,"40":0.0030912606287065384,"41":-0.19215917032934507,"42":-0.3065220117366655,"43":0.16449219274246787,"44":0.3707675905124126,"45":-0.5332200713346765,"46":0.04881511067573418,"47":0.6358547897192518,"48":-0.21642058890634477,"49":-0.23006578979355954,"50":-0.02103500532707576,"51":-0.2190507962808183,"52":-0.22328286192418706,"53":-0.5936461061269073,"54":0.18400544764445018,"55":0.42835368300613985,"56":-0.015009218646932101,"57":0.2205866555444878,"58":-0.033792069233382946,"59":-0.06891312393383643,"60":-0.16538001260217455,"61":0.03935295242521408,"62":0.06824938436761326,"63":0.2074334532938963,"64":-0.3371601600270948,"65":-0.2539181425749441,"66":0.002655947912259777,"67":-0.24957769141637362,"68":-0.16646543976869993,"69":0.01776941391965978,"70":-0.20820458843434375,"71":-0.21107156994629742,"72":-0.20105730344861678,"73":0.29210200877141984,"74":0.07371408327115167,"75":-0.1113135204614264,"76":-0.16137686626246486,"77":0.0187119460440741,"78":0.056798577355032694,"79":-0.10768551801425015,"80":-0.10762426036959999,"81":-0.46459338689209606,"82":0.02463684070944728,"83":-0.4948747293302119,"84":-0.053694428151560634,"85":-0.028091832504302094,"86":0.07852034350656775,"87":0.04270903499452736,"88":-0.11300687339677844,"89":-0.29334431588493337}}],"biases":{"sx":1,"sy":1,"depth":10,"w":{"0":-0.14576836384234204,"1":-0.23275244331833983,"2":0.06852339347664192,"3":-0.11315353101939048,"4":0.1490103583713479,"5":0.12287248773667724,"6":-0.7634777501286637,"7":-0.28943713576509594,"8":-0.018410704327137237,"9":0.06106571332066778}}},{"out_depth":10,"out_sx":16,"out_sy":16,"layer_type":"relu"},{"sx":2,"sy":2,"stride":2,"in_depth":10,"out_depth":10,"out_sx":8,"out_sy":8,"layer_type":"pool","pad":0},{"sx":3,"sy":3,"stride":1,"in_depth":10,"out_depth":10,"out_sx":8,"out_sy":8,"layer_type":"conv","l1_decay_mul":0,"l2_decay_mul":1,"pad":1,"filters":[{"sx":3,"sy":3,"depth":10,"w":{"0":0.057183516226327856,"1":-0.2239469674746646,"2":-0.06756769419808534,"3":0.07437326390871918,"4":-0.22638081516009367,"5":-0.3516255315699599,"6":-0.1412244903367567,"7":-0.043203116268327214,"8":0.3046387258786786,"9":0.18901613961155306,"10":-0.030027549370739207,"11":-0.1756795359639678,"12":-0.6047344327438843,"13":-0.27309774512471024,"14":0.012753715019031314,"15":-0.18002703723748406,"16":-0.2573207007483813,"17":-0.43962442831894133,"18":0.1754506684027063,"19":0.24000553186417967,"20":-0.12551704802434965,"21":-0.12354589082054898,"22":0.3264486746183626,"23":-0.07668634317046812,"24":0.14478401661046145,"25":0.13238615241953738,"26":-0.008677294860096284,"27":-0.25558363988375554,"28":-0.160673457943681,"29":-0.225830293183415,"30":-0.038117263978468534,"31":-0.2821514362080105,"32":-0.3220877011009997,"33":0.10864927662325212,"34":0.247110391782358,"35":-0.44104131522109585,"36":-0.365760533512092,"37":-0.10623030233139794,"38":0.0875733293148368,"39":-0.08510767502416583,"40":0.03563244473599224,"41":-0.4203520515456449,"42":-0.37030997084885287,"43":-0.3311725155524281,"44":-0.17859590203855727,"45":-0.11321465691380468,"46":-0.22421749160824536,"47":-0.2809994981864637,"48":-0.06138615988983005,"49":-0.36023170827962214,"50":-0.259883768583475,"51":-0.039188338128859,"52":-0.02226222834114566,"53":-0.4224372470454628,"54":0.07420964511418474,"55":0.004339651064655144,"56":-0.2655375666324052,"57":-0.13376553030053367,"58":-0.03365099288242671,"59":-0.05752529705528379,"60":-0.04472822033078476,"61":-0.0014457289452792926,"62":-0.222189655225282,"63":0.07089580420706239,"64":0.2698605184769967,"65":-0.031824241723353436,"66":-0.1656919370424066,"67":0.07990187925189511,"68":0.1380565546365862,"69":-0.040015004280986075,"70":0.12183121515934248,"71":-0.2650739793171447,"72":-0.18551896243840998,"73":-0.17424316030397416,"74":0.0033958374487831596,"75":-0.22616221636060052,"76":-0.24179908150839113,"77":-0.1281608417567243,"78":0.06430885943461627,"79":-0.2419510452527618,"80":-0.008155844175771804,"81":-0.0018750334336626727,"82":-0.017286592892773574,"83":-0.12848366595507713,"84":0.05601732536784452,"85":0.41616979992850267,"86":0.08285447941990036,"87":-0.02000466431119313,"88":-0.062130662073799386,"89":0.007600544725851012}},{"sx":3,"sy":3,"depth":10,"w":{"0":0.04417006857616121,"1":-0.259454801498553,"2":0.023762121503945518,"3":0.0008751654575704474,"4":0.20446197924604154,"5":0.3554939035465779,"6":-0.0005873608566311163,"7":-0.07232665591090803,"8":-0.0012358101828545051,"9":-0.2567598072130467,"10":-0.19380826380952157,"11":-0.11148358844160748,"12":-0.6015229019599032,"13":-0.06667198903325786,"14":0.3730956479677147,"15":-0.2602929036027002,"16":-0.2042946048037905,"17":0.05640587525271345,"18":0.288852485819859,"19":0.2742387185995717,"20":-0.03382153985125105,"21":-0.1321123551380468,"22":-0.3347811728783703,"23":-0.06716585847135102,"24":0.04670374358593997,"25":0.04573418037488809,"26":-0.43214269006607253,"27":0.017514651927456035,"28":-0.014291701327256967,"29":-0.024687915833049984,"30":0.137544162400141,"31":-0.17204177354066308,"32":-0.5227910205496091,"33":0.18666718438064994,"34":-0.05564969247879685,"35":-0.1373181068610029,"36":-0.059020673658821896,"37":0.17191000022846523,"38":-0.04087616767395563,"39":0.3979641962798496,"40":-0.04665493716850938,"41":-0.14741309597028138,"42":-0.5946585772403827,"43":0.22115011917937252,"44":-0.3900706173520275,"45":-0.056818458796217094,"46":-0.4600617021733107,"47":-0.013499846267618416,"48":0.2128399049275193,"49":-0.035044723213656585,"50":0.10241430075854961,"51":0.2286636329201252,"52":0.47495231290144385,"53":0.06159938577890046,"54":-0.00443710399640343,"55":-0.07256427148407031,"56":0.046205902060923454,"57":-0.4338737066779557,"58":-0.13010608482712802,"59":-0.42407810264251317,"60":0.03174328262406647,"61":0.4863890113439119,"62":-0.0715949138390554,"63":-0.11972801088270171,"64":-0.025529412470598936,"65":-0.38106200787562255,"66":-0.061016851462406305,"67":-0.3014105766451155,"68":-0.016324401631278494,"69":-0.18190583414515213,"70":-0.04293412752619686,"71":0.058296749464551816,"72":0.0782961818803312,"73":-0.351423388816677,"74":-0.3782888698218587,"75":-0.04822286764436474,"76":-0.055745865337248415,"77":-0.1181342913469032,"78":0.15092473510271848,"79":-0.3209863164679126,"80":-0.09895100546412339,"81":0.236235171679694,"82":0.4774399431745728,"83":-0.1428026230385814,"84":0.1867213585247159,"85":0.19245757943829142,"86":0.01974857195062246,"87":0.025519875107210505,"88":-0.2663843843844755,"89":-0.6812334178526904}},{"sx":3,"sy":3,"depth":10,"w":{"0":0.08298521693329533,"1":-0.00047927119486579106,"2":-0.19577861528423934,"3":-0.27591032194683907,"4":-0.1586729937648437,"5":0.11810227710164536,"6":-0.1496587482494659,"7":0.21106031344416848,"8":-0.2287482994209664,"9":-0.33198467521918074,"10":-0.102595194243421,"11":-0.4224707633974321,"12":-0.5050833252931262,"13":0.03685589888157494,"14":-0.026634725734423808,"15":-0.15093765832673642,"16":-0.20394423178794507,"17":0.08657916434558387,"18":-0.16907321821160565,"19":-0.14704107066022237,"20":0.09399820539519382,"21":-0.34737093992221296,"22":-0.00975646701217718,"23":-0.12210324537390763,"24":0.0008475500189169883,"25":-0.05452385239335244,"26":-0.5448765481574078,"27":0.07856593690121667,"28":0.0700052946310586,"29":0.34742160320153986,"30":-0.012829312041341334,"31":-0.16711727887116584,"32":-0.30718131201166865,"33":-0.05855197271602167,"34":-0.024726863546033165,"35":-0.20452567044554928,"36":-0.1436270082769292,"37":0.13127647304504766,"38":-0.11914942349149356,"39":0.2288105186419903,"40":-0.11348256739695277,"41":-0.3051887080680299,"42":-0.37245744168314104,"43":-0.1697379792951092,"44":-0.33958259083346115,"45":-0.35675875410861985,"46":-0.47559417774866247,"47":0.09867170681089678,"48":0.17095486911389737,"49":0.3035802707812255,"50":-0.16410755170054137,"51":-0.2907886631601151,"52":0.07715293340252397,"53":-0.2226620925208223,"54":-0.16289504200472116,"55":0.0534475398740676,"56":-0.23719586748468777,"57":-0.1176838355419301,"58":0.10751653776049828,"59":-0.16339221110553276,"60":0.019665380616143324,"61":0.16969052273803592,"62":-0.3034034035356498,"63":-0.06416753184977146,"64":-0.17569225371616579,"65":-0.14677696377910573,"66":-0.1102725380447195,"67":-0.12053559290970031,"68":0.01396112961821299,"69":-0.06452055002126929,"70":-0.013448408685276615,"71":-0.30151164347628784,"72":0.060609598902595846,"73":-0.12172330353432918,"74":-0.2812502625367144,"75":-0.30992071331287296,"76":-0.4917253242462083,"77":0.061427473493997714,"78":0.1608522997777587,"79":-0.03393688364970526,"80":0.0010700537224447402,"81":-0.3723171389411041,"82":0.20823336993221875,"83":-0.32610963683609107,"84":-0.025943012550629353,"85":-0.103468600066504,"86":-0.2997192973618495,"87":-0.08931331538427507,"88":-0.09893307871533369,"89":-0.34104255570028297}},{"sx":3,"sy":3,"depth":10,"w":{"0":-0.09599758672114934,"1":-0.03436643367486218,"2":0.19373475345042557,"3":-0.46410287578901266,"4":-0.11305159598867363,"5":-0.10617577931762404,"6":0.0468909729231114,"7":-0.10931694413858117,"8":-0.40892491708802897,"9":-0.8798187936841325,"10":-0.3476318509421184,"11":0.31147095316412066,"12":0.24541676133237256,"13":0.24577560113788596,"14":-0.03541561153776759,"15":-0.14355264013439212,"16":-0.00470730508050377,"17":-0.28153409056618683,"18":-0.2900350198361698,"19":-0.3729675855564137,"20":0.17276882743027283,"21":-0.17480339957313487,"22":-0.46726999500006183,"23":-0.5693523818578458,"24":-0.19347217892714522,"25":0.23583432459893744,"26":0.23436744550361954,"27":0.19809154379477248,"28":-0.19558744325937125,"29":-0.2878695230498722,"30":-0.02179554645359215,"31":-0.3132770645001253,"32":0.16641091977917546,"33":-0.23114448292603573,"34":-0.040432977512494986,"35":0.1644319157753604,"36":-0.44342678988203804,"37":-0.08021565446731636,"38":-0.3068427742986671,"39":0.08481758477388879,"40":0.2054576492785646,"41":-0.13585113561170464,"42":-0.2313463776004255,"43":-0.07267362159411188,"44":0.08589190585682721,"45":0.1330590753988087,"46":0.2017589483216788,"47":0.24307383671619076,"48":0.14751993665295235,"49":-0.08031527963917381,"50":0.07484320845889023,"51":0.008230091998300082,"52":-0.30253203580491667,"53":-0.3778159706576156,"54":-0.2158536582516613,"55":0.38613462434337814,"56":0.038372012265340545,"57":0.15136188588504967,"58":0.03192364888450451,"59":-0.3912392382295805,"60":0.04466631216957036,"61":0.3771958013411959,"62":-0.15457906080422842,"63":0.1418326929510424,"64":0.07138551843730499,"65":-0.33389562121201083,"66":-0.018814953781852245,"67":-0.1778657330922057,"68":0.046429285122413975,"69":-0.3449692296311283,"70":-0.0010514237384702725,"71":-0.26117027638639545,"72":-0.22567622921952027,"73":0.06686867717710152,"74":0.016456787358962853,"75":-0.40401689391150164,"76":-0.3594875502179086,"77":-0.4210948556111012,"78":0.21879025325382004,"79":0.14948410422163425,"80":-0.0526367646280617,"81":-0.17341034085713,"82":-0.4942767149365669,"83":-0.1513211140875643,"84":-0.41196557993435046,"85":0.37321467848046747,"86":0.17287432493318888,"87":0.23989835989735517,"88":-0.024937816527831412,"89":0.2173034342791506}},{"sx":3,"sy":3,"depth":10,"w":{"0":-0.022184703068082484,"1":-0.04261950319856668,"2":-0.11314147300782412,"3":0.44811957141333564,"4":-0.02036931224438155,"5":-0.08340412639726982,"6":0.10070195639764715,"7":-0.09812430026242834,"8":-0.1900533315608833,"9":-0.0000735149475547176,"10":0.059718887999491384,"11":-0.28926963130889893,"12":-0.0722196694116755,"13":-0.08740724642070932,"14":-0.06334166654534847,"15":-0.3270421455081154,"16":-0.054685250651388045,"17":-0.09184347314403782,"18":0.006060145941272753,"19":-0.04265697994729516,"20":0.12485809798165609,"21":-0.11789169493119195,"22":-0.17177178342902796,"23":-0.1497371270660316,"24":0.04913825023808316,"25":0.031068944557936556,"26":-0.11400893226275861,"27":-0.06507496200299617,"28":0.03639597322544054,"29":0.2202844252381368,"30":-0.02237313178268007,"31":0.14771978044265835,"32":0.5033733908098768,"33":0.11790878964636131,"34":-0.08204783270888284,"35":-0.010322924015995502,"36":0.09799070970345367,"37":-0.21882666505900433,"38":-0.12592035498740756,"39":0.03279206079858618,"40":0.08266868121083562,"41":-0.026041949216220484,"42":-0.048870170814084735,"43":-0.005944500768850077,"44":-0.011438011444000494,"45":0.021323430047944975,"46":-0.3029344197940103,"47":-0.250835617824114,"48":0.08308596855845347,"49":0.24674465883283594,"50":0.0017626150396243816,"51":0.026294751383990327,"52":-0.11798115146411763,"53":-0.16028931848229327,"54":0.17777093320800486,"55":0.14996531804267052,"56":-0.1661668312123556,"57":0.05358147127699578,"58":0.22834927109635253,"59":-0.0008980272329435855,"60":-0.13532116704870395,"61":-0.06141749099446971,"62":-0.11168563378222525,"63":-0.22173647716597403,"64":-0.16660035347261035,"65":-0.37834166748509995,"66":-0.2159454366792259,"67":-0.2727938377659158,"68":-0.02763573171062406,"69":0.22693799824016136,"70":-0.09632477820569585,"71":-0.3215343754026429,"72":-0.23959855925982104,"73":0.2271265733069594,"74":-0.15725169774270883,"75":-0.22440782625426936,"76":-0.3922643208675174,"77":-0.23789414780144544,"78":0.03326069033645417,"79":0.002558861837899116,"80":0.009180839605241011,"81":-0.06961743803583297,"82":-0.27760625382588444,"83":-0.3124381063673004,"84":-0.022075536679907144,"85":-0.08418307742063362,"86":-0.198520481198596,"87":-0.3001486800895872,"88":0.015699326443302398,"89":-0.10919825109669602}},{"sx":3,"sy":3,"depth":10,"w":{"0":0.06826353106678965,"1":-0.09622436517630191,"2":0.21790285764011014,"3":-0.6441990561496251,"4":-0.3417642472317296,"5":0.13110621490361893,"6":-0.19671307687058362,"7":-0.2558361511899425,"8":-0.039807558536013664,"9":-0.40606794954755837,"10":-0.04670248967977328,"11":-0.09455701568475294,"12":0.2493591784730718,"13":-0.030337890751923908,"14":0.13630456683312742,"15":0.0332845679325891,"16":-0.28444572183068484,"17":0.09451899931285225,"18":0.12412396182785783,"19":-0.21703492655932588,"20":-0.012767257472722638,"21":-0.40268958758057194,"22":-0.5606669732068855,"23":-0.12166970952351346,"24":-0.04213819848447606,"25":0.00985475840141424,"26":-0.34551848374729016,"27":0.05580667391243713,"28":-0.049472474181110705,"29":-0.3643973687403958,"30":-0.036544412550452654,"31":0.17163463076291674,"32":-0.10879572408009043,"33":-0.156101979352024,"34":-0.3029224848386773,"35":0.3098056969133718,"36":-0.00869118260081604,"37":-0.557986035007518,"38":-0.08277520671184227,"39":0.019304811535482157,"40":0.12068992376416908,"41":0.017740668597477607,"42":0.06408377952555264,"43":0.31135079918655234,"44":0.041162786824207195,"45":-0.21118586729294575,"46":-0.15187731509910513,"47":-0.14295967904664558,"48":0.14475907352358292,"49":0.2899095935202603,"50":0.1082254975693613,"51":-0.2702127720618649,"52":-0.33428237251313137,"53":0.1608673204937036,"54":0.017071982144284775,"55":0.0027139528083315813,"56":-0.2869923176222497,"57":0.29635581596330474,"58":0.25618815044267534,"59":0.42090761245451974,"60":-0.21835770537390398,"61":-0.04968645107574492,"62":-0.12589378348122865,"63":-0.31085162043338294,"64":-0.2471503489039956,"65":0.010083723364796116,"66":-0.18942230646538194,"67":-0.2733287603250973,"68":-0.21097204428227176,"69":-0.5453317283087171,"70":0.06994053565461393,"71":0.055125646272280206,"72":0.09573201375121648,"73":0.11489925252371891,"74":0.1617242200862757,"75":-0.2628546584227012,"76":-0.09327687818274467,"77":-0.05028033662907791,"78":-0.3500541305566696,"79":0.042813781001990736,"80":-0.12262017975172564,"81":0.05983529005669682,"82":-0.24833168533921696,"83":0.15369627588974571,"84":-0.02834138549570838,"85":-0.10301928230814604,"86":-0.21988683229460848,"87":0.0728596184200159,"88":0.3398615157709435,"89":0.2470644989538149}},{"sx":3,"sy":3,"depth":10,"w":{"0":0.10119387230829448,"1":-0.03560581194360093,"2":0.06710855704626682,"3":-0.29104211645365613,"4":-0.1621594505445409,"5":0.2091103997096816,"6":-0.27096795215191344,"7":-0.13616037112340165,"8":0.09930418478797656,"9":-0.30184923601678376,"10":0.006816264551296371,"11":-0.1149208502355399,"12":-0.1210070829085388,"13":-0.2981039048030974,"14":-0.22283742927875774,"15":0.04162096408944031,"16":-0.1992575765457627,"17":-0.09114317741966356,"18":-0.05221568870807602,"19":-0.38482148311004294,"20":-0.16070322578819846,"21":0.1909517866875535,"22":-0.12360590464092186,"23":0.2780446759463581,"24":-0.3507856384307668,"25":-0.0447224967630118,"26":0.10290900919905328,"27":-0.2080356270570207,"28":-0.24233134217551203,"29":-0.10804045003721098,"30":-0.11798800454733127,"31":0.14991541533813083,"32":0.14597347491791035,"33":-0.2791695397259171,"34":-0.18650600879277254,"35":0.2366773761802723,"36":-0.4130685363691249,"37":-0.344030750565895,"38":0.015109932972980347,"39":-0.3062041210662261,"40":-0.07388224782208594,"41":-0.16011907458392316,"42":-0.07838726397574419,"43":-0.4467742772332247,"44":-0.15749042596896923,"45":-0.22851194315729725,"46":-0.3274268247320056,"47":-0.25540150047242494,"48":-0.09998506424245295,"49":-0.4182229929522699,"50":-0.10639836158645653,"51":-0.12123339439227761,"52":0.17178012628450723,"53":-0.5300493871532765,"54":-0.15963616459836863,"55":-0.1442308266390306,"56":-0.21048291970245547,"57":-0.3589043494099797,"58":-0.11457924473386404,"59":-0.2173971197558634,"60":0.06661612024838254,"61":-0.05888481029080919,"62":0.18367527296018935,"63":-0.24840199960401838,"64":0.08313746008698115,"65":0.1448815899445658,"66":0.10653834739960291,"67":-0.19813153844902598,"68":0.005231744052160367,"69":-0.056612632986801345,"70":-0.0707496097853651,"71":-0.09175396596136876,"72":-0.056420302141054625,"73":-0.44844105970278547,"74":0.06262379109421286,"75":-0.05894236592074466,"76":-0.36587039426048,"77":-0.2262862866832381,"78":-0.2242976260566863,"79":-0.31516753360827743,"80":-0.055968906601166664,"81":-0.034476893701417495,"82":0.10628108353498321,"83":-0.36646134659979057,"84":0.05919959617960371,"85":-0.17344128344829499,"86":0.0011847075854567448,"87":-0.17070626314154022,"88":-0.15572243869522845,"89":-0.24694970499990831}},{"sx":3,"sy":3,"depth":10,"w":{"0":-0.10824699014809698,"1":-0.09705685595070082,"2":0.2293868488734166,"3":0.27687722585787844,"4":-0.05671589359048191,"5":-0.3435170066219786,"6":-0.06904044292949599,"7":-0.17158146904605875,"8":-0.1393211157752672,"9":-0.31014275725351836,"10":0.10153597466813377,"11":-0.41497025497929785,"12":-0.4192028548964474,"13":0.0005513721917612073,"14":-0.14655254200648127,"15":-0.2538614877511057,"16":-0.19196686943817867,"17":-0.05777799057131672,"18":-0.09244682670465039,"19":0.4916073673354801,"20":-0.17010119308378055,"21":-0.12129295712124284,"22":0.49108658839276537,"23":-0.37222889584183294,"24":-0.14871729337768952,"25":0.2796269357978667,"26":-0.08242610965553766,"27":0.2091369695329051,"28":0.038172900957022214,"29":-0.04742685532879098,"30":-0.027063776007345556,"31":-0.24007838933982076,"32":0.11689221155428745,"33":-0.1877552436044881,"34":0.002694756310825604,"35":-0.40238833362743365,"36":-0.1469792154275678,"37":-0.3124842789049328,"38":-0.2792397182740223,"39":-0.36817512055928187,"40":0.21289211035856398,"41":-0.25565773735117925,"42":-0.45763014223063714,"43":0.5158416444430548,"44":0.3012256985324404,"45":-0.42107062465524947,"46":-0.23833244795528363,"47":-0.1292961643928752,"48":-0.11564880930461659,"49":0.1050577678705746,"50":0.11575817639646234,"51":-0.31848569440517105,"52":-0.06307184238890692,"53":-0.4704831065356027,"54":-0.16799815883923547,"55":0.4114057150145016,"56":0.21054147284344146,"57":0.07454190235862711,"58":0.22987685859219636,"59":0.2938696211316827,"60":-0.2829082337275473,"61":-0.46765068615298905,"62":0.045251077126919226,"63":-0.2523858799901799,"64":0.18546576569126638,"65":-0.5626548692956168,"66":-0.5720644890518601,"67":-0.2190774159692279,"68":-0.0821166421914198,"69":-0.45767107445429756,"70":0.04097896203940626,"71":-0.15537866228405994,"72":-0.1783704727852225,"73":-0.11714907468437087,"74":0.1441139696114178,"75":-0.20995687340099875,"76":-0.4175582651164742,"77":-0.15168085844849408,"78":-0.01454279790329118,"79":-0.13947974230271723,"80":-0.04778944365778312,"81":-0.21726446422112658,"82":-0.2928630152413674,"83":0.20287712509591685,"84":-0.035971308564508746,"85":-0.12521919644834142,"86":-0.33674866583239066,"87":-0.08191944789103774,"88":-0.003236856697726423,"89":0.09444530646876761}},{"sx":3,"sy":3,"depth":10,"w":{"0":0.15514576930694468,"1":-0.20034112713714075,"2":-0.41649565749346507,"3":-0.21548832616503155,"4":-0.1040831574380326,"5":-0.23810076398847524,"6":-0.19711007559306226,"7":-0.2544680435152224,"8":-0.014654579960316915,"9":-0.1899030135192445,"10":-0.0031035957000245433,"11":-0.09000616344301043,"12":-0.37667249942524494,"13":0.1955020135881171,"14":-0.02533404567981557,"15":-0.36852823467562795,"16":-0.13252332820609175,"17":-0.310013476839832,"18":-0.30103404849210724,"19":0.08451607242951513,"20":-0.13325731674381666,"21":-0.001362265550871615,"22":-0.14499924947142592,"23":0.18209691366198222,"24":-0.05866807009232119,"25":-0.14483206427730175,"26":-0.2579514246428498,"27":0.03136908995982869,"28":-0.05900626020485078,"29":0.31398285282810473,"30":-0.08672661826102333,"31":-0.09219341048270771,"32":-0.09484276218800172,"33":-0.37978274139137247,"34":-0.2945605076384559,"35":-0.17764269152880807,"36":-0.03344272229381429,"37":0.01780540668738664,"38":-0.1759318102640964,"39":-0.22076673200448862,"40":-0.039904011313499826,"41":-0.1047902050954463,"42":-0.06752980123995368,"43":-0.2585697699140197,"44":0.025438384408532876,"45":-0.3028981500626881,"46":-0.01266762015797106,"47":-0.11263733284123212,"48":-0.08280275182980483,"49":-0.015238295373563401,"50":0.011786875401874109,"51":0.1874782641002424,"52":0.08625436452950033,"53":-0.1264696049649069,"54":-0.12412877581886926,"55":0.09735949487691468,"56":-0.04073147111331394,"57":-0.2070242561451472,"58":0.004189187655214655,"59":-0.05511440487615651,"60":-0.03646606390473639,"61":-0.30579711361624556,"62":-0.21540846984095408,"63":-0.2637031324252006,"64":-0.19161506337993772,"65":-0.220997438412193,"66":-0.18754402376404286,"67":0.01667347884277993,"68":-0.07489234141587701,"69":-0.17176104434373216,"70":0.022766669159985684,"71":-0.4159115269842045,"72":-0.12037332484607524,"73":-0.17594623955199926,"74":0.04300511913220658,"75":-0.4672658224303526,"76":-0.4374291906568045,"77":-0.2537046190930911,"78":-0.11081475368523788,"79":-0.1279375410712951,"80":-0.05941093974605397,"81":-0.2854099235493112,"82":-0.07741394563729236,"83":-0.25316267293457045,"84":0.3164293701095203,"85":-0.36255470416263763,"86":-0.2618938764327365,"87":-0.32700226913589026,"88":-0.08699143378935717,"89":0.032680314341055776}},{"sx":3,"sy":3,"depth":10,"w":{"0":-0.07035533368380617,"1":0.008866828173046012,"2":-0.06251189883933694,"3":-0.08419835830167066,